<?xml version="1.0"?>
<opencv_storage>
<cascade>
  <stageType>BOOST</stageType>
  <featureType>HOG</featureType>
  <height>24</height>
  <width>24</width>
  <stageParams>
    <boostType>GAB</boostType>
    <minHitRate>9.9500000476837158e-01</minHitRate>
    <maxFalseAlarm>5.0000000000000000e-01</maxFalseAlarm>
    <weightTrimRate>9.4999998807907104e-01</weightTrimRate>
    <maxDepth>1</maxDepth>
    <maxWeakCount>100</maxWeakCount></stageParams>
  <featureParams>
    <maxCatCount>0</maxCatCount>
    <featSize>36</featSize></featureParams>
  <stageNum>20</stageNum>
  <stages>
    <!-- stage 0 -->
    <_>
      <maxWeakCount>6</maxWeakCount>
      <stageThreshold>-2.1232857704162598e+00</stageThreshold>
      <weakClassifiers>
        <_>
          <internalNodes>
            0 -1 220 3.7683308124542236e-02</internalNodes>
          <leafValues>
            -8.8689506053924561e-01 -2.4285714328289032e-01</leafValues></_>
        <_>
          <internalNodes>
            0 -1 48 2.3927982896566391e-02</internalNodes>
          <leafValues>
            -8.1804579496383667e-01 4.7486223280429840e-02</leafValues></_>
        <_>
          <internalNodes>
            0 -1 31 3.0641723424196243e-02</internalNodes>
          <leafValues>
            -4.5685616135597229e-01 4.5779001712799072e-01</leafValues></_>
        <_>
          <internalNodes>
            0 -1 234 3.1644411385059357e-02</internalNodes>
          <leafValues>
            -3.3171403408050537e-01 5.1576411724090576e-01</leafValues></_>
        <_>
          <internalNodes>
            0 -1 66 3.5879939794540405e-02</internalNodes>
          <leafValues>
            -3.1968045234680176e-01 5.1460117101669312e-01</leafValues></_>
        <_>
          <internalNodes>
            0 -1 2 3.2308582216501236e-02</internalNodes>
          <leafValues>
            -2.2474040091037750e-01 5.1410984992980957e-01</leafValues></_></weakClassifiers></_>
    <!-- stage 1 -->
    <_>
      <maxWeakCount>8</maxWeakCount>
      <stageThreshold>-1.8909317255020142e+00</stageThreshold>
      <weakClassifiers>
        <_>
          <internalNodes>
            0 -1 20 3.5227261483669281e-02</internalNodes>
          <leafValues>
            -8.7249112129211426e-01 -4.5132744312286377e-01</leafValues></_>
        <_>
          <internalNodes>
            0 -1 224 2.6560470461845398e-02</internalNodes>
          <leafValues>
            4.5111130923032761e-02 -7.2469538450241089e-01</leafValues></_>
        <_>
          <internalNodes>
            0 -1 41 3.0482700094580650e-02</internalNodes>
          <leafValues>
            -4.2079907655715942e-01 2.8847429156303406e-01</leafValues></_>
        <_>
          <internalNodes>
            0 -1 19 1.2533716857433319e-02</internalNodes>
          <leafValues>
            -6.5366572141647339e-01 1.6638299822807312e-01</leafValues></_>
        <_>
          <internalNodes>
            0 -1 183 4.0392573922872543e-02</internalNodes>
          <leafValues>
            -2.0964656770229340e-01 5.5086869001388550e-01</leafValues></_>
        <_>
          <internalNodes>
            0 -1 215 2.8092322871088982e-02</internalNodes>
          <leafValues>
            2.9146572947502136e-01 -4.7233319282531738e-01</leafValues></_>
        <_>
          <internalNodes>
            0 -1 30 3.0377686023712158e-02</internalNodes>
          <leafValues>
            -2.6008874177932739e-01 3.1515190005302429e-01</leafValues></_>
        <_>
          <internalNodes>
            0 -1 220 3.4321218729019165e-02</internalNodes>
          <leafValues>
            -2.7893963456153870e-01 3.2309511303901672e-01</leafValues></_></weakClassifiers></_>
    <!-- stage 2 -->
    <_>
      <maxWeakCount>14</maxWeakCount>
      <stageThreshold>-2.0827071666717529e+00</stageThreshold>
      <weakClassifiers>
        <_>
          <internalNodes>
            0 -1 227 4.4953696429729462e-02</internalNodes>
          <leafValues>
            -8.4295374155044556e-01 -3.3333334326744080e-01</leafValues></_>
        <_>
          <internalNodes>
            0 -1 59 3.0108196660876274e-02</internalNodes>
          <leafValues>
            -5.8745354413986206e-01 4.4726479798555374e-02</leafValues></_>
        <_>
          <internalNodes>
            0 -1 254 3.5846054553985596e-02</internalNodes>
          <leafValues>
            -4.3636724352836609e-01 2.5629341602325439e-01</leafValues></_>
        <_>
          <internalNodes>
            0 -1 206 3.4150511026382446e-02</internalNodes>
          <leafValues>
            -2.7665549516677856e-01 4.0903410315513611e-01</leafValues></_>
        <_>
          <internalNodes>
            0 -1 2 4.0970191359519958e-02</internalNodes>
          <leafValues>
            -1.8562166392803192e-01 4.6970018744468689e-01</leafValues></_>
        <_>
          <internalNodes>
            0 -1 44 2.1937150508165359e-02</internalNodes>
          <leafValues>
            2.6614499092102051e-01 -4.1054227948188782e-01</leafValues></_>
        <_>
          <internalNodes>
            0 -1 102 1.1184236034750938e-02</internalNodes>
          <leafValues>
            -5.4066926240921021e-01 1.8271520733833313e-01</leafValues></_>
        <_>
          <internalNodes>
            0 -1 48 3.4879714250564575e-02</internalNodes>
          <leafValues>
            -4.0207999944686890e-01 2.5066167116165161e-01</leafValues></_>
        <_>
          <internalNodes>
            0 -1 119 4.5432150363922119e-02</internalNodes>
          <leafValues>
            -1.6645386815071106e-01 4.5134934782981873e-01</leafValues></_>
        <_>
          <internalNodes>
            0 -1 224 1.6492605209350586e-02</internalNodes>
          <leafValues>
            2.7841213345527649e-01 -2.8631901741027832e-01</leafValues></_>
        <_>
          <internalNodes>
            0 -1 183 3.1323101371526718e-02</internalNodes>
          <leafValues>
            -2.2802270948886871e-01 3.3930447697639465e-01</leafValues></_>
        <_>
          <internalNodes>
            0 -1 205 3.6146990954875946e-02</internalNodes>
          <leafValues>
            -1.9524796307086945e-01 3.8336679339408875e-01</leafValues></_>
        <_>
          <internalNodes>
            0 -1 166 7.8809605911374092e-03</internalNodes>
          <leafValues>
            -4.7820162773132324e-01 1.3923752307891846e-01</leafValues></_>
        <_>
          <internalNodes>
            0 -1 134 2.9443966224789619e-02</internalNodes>
          <leafValues>
            -2.4616409838199615e-01 2.5320053100585938e-01</leafValues></_></weakClassifiers></_>
    <!-- stage 3 -->
    <_>
      <maxWeakCount>21</maxWeakCount>
      <stageThreshold>-2.0468420982360840e+00</stageThreshold>
      <weakClassifiers>
        <_>
          <internalNodes>
            0 -1 2 6.8591319024562836e-02</internalNodes>
          <leafValues>
            -8.0714958906173706e-01 -1.2781955301761627e-01</leafValues></_>
        <_>
          <internalNodes>
            0 -1 66 5.0455033779144287e-02</internalNodes>
          <leafValues>
            -4.3857878446578979e-01 1.8550914525985718e-01</leafValues></_>
        <_>
          <internalNodes>
            0 -1 192 3.1936515122652054e-02</internalNodes>
          <leafValues>
            -2.7435734868049622e-01 2.9317879676818848e-01</leafValues></_>
        <_>
          <internalNodes>
            0 -1 228 3.4457109868526459e-02</internalNodes>
          <leafValues>
            -3.5992589592933655e-01 1.9744005799293518e-01</leafValues></_>
        <_>
          <internalNodes>
            0 -1 114 7.4664965271949768e-02</internalNodes>
          <leafValues>
            1.0923673212528229e-01 -7.3353952169418335e-01</leafValues></_>
        <_>
          <internalNodes>
            0 -1 89 4.3683458119630814e-02</internalNodes>
          <leafValues>
            1.3401177525520325e-01 -4.7016841173171997e-01</leafValues></_>
        <_>
          <internalNodes>
            0 -1 45 1.5001035295426846e-02</internalNodes>
          <leafValues>
            3.0652582645416260e-01 -2.2426985204219818e-01</leafValues></_>
        <_>
          <internalNodes>
            0 -1 147 2.7003560215234756e-02</internalNodes>
          <leafValues>
            -2.5101178884506226e-01 2.5855156779289246e-01</leafValues></_>
        <_>
          <internalNodes>
            0 -1 172 1.0715255513787270e-02</internalNodes>
          <leafValues>
            -4.0432360768318176e-01 1.3124696910381317e-01</leafValues></_>
        <_>
          <internalNodes>
            0 -1 194 1.9833441823720932e-02</internalNodes>
          <leafValues>
            1.8768034875392914e-01 -2.5807234644889832e-01</leafValues></_>
        <_>
          <internalNodes>
            0 -1 183 5.9735238552093506e-02</internalNodes>
          <leafValues>
            -8.9182220399379730e-02 5.1883924007415771e-01</leafValues></_>
        <_>
          <internalNodes>
            0 -1 151 4.5171909034252167e-02</internalNodes>
          <leafValues>
            -1.2459313869476318e-01 4.1116851568222046e-01</leafValues></_>
        <_>
          <internalNodes>
            0 -1 47 4.9258574843406677e-02</internalNodes>
          <leafValues>
            -1.5604460239410400e-01 4.0444517135620117e-01</leafValues></_>
        <_>
          <internalNodes>
            0 -1 227 4.6323388814926147e-02</internalNodes>
          <leafValues>
            -1.3671164214611053e-01 3.6167520284652710e-01</leafValues></_>
        <_>
          <internalNodes>
            0 -1 31 3.2731741666793823e-02</internalNodes>
          <leafValues>
            -2.2704266011714935e-01 2.4945025146007538e-01</leafValues></_>
        <_>
          <internalNodes>
            0 -1 166 6.5942080691456795e-03</internalNodes>
          <leafValues>
            -5.2162075042724609e-01 9.7338490188121796e-02</leafValues></_>
        <_>
          <internalNodes>
            0 -1 223 3.4785121679306030e-02</internalNodes>
          <leafValues>
            7.9943895339965820e-02 -5.6574887037277222e-01</leafValues></_>
        <_>
          <internalNodes>
            0 -1 185 3.0861392617225647e-02</internalNodes>
          <leafValues>
            1.2352154403924942e-01 -3.7140527367591858e-01</leafValues></_>
        <_>
          <internalNodes>
            0 -1 73 2.8167672455310822e-02</internalNodes>
          <leafValues>
            -3.7107467651367188e-01 1.3262842595577240e-01</leafValues></_>
        <_>
          <internalNodes>
            0 -1 12 2.9135490767657757e-03</internalNodes>
          <leafValues>
            -9.1367411613464355e-01 5.4917592555284500e-02</leafValues></_>
        <_>
          <internalNodes>
            0 -1 246 1.8576640635728836e-02</internalNodes>
          <leafValues>
            2.7250492572784424e-01 -1.9029566645622253e-01</leafValues></_></weakClassifiers></_>
    <!-- stage 4 -->
    <_>
      <maxWeakCount>20</maxWeakCount>
      <stageThreshold>-1.7517697811126709e+00</stageThreshold>
      <weakClassifiers>
        <_>
          <internalNodes>
            0 -1 228 5.1348648965358734e-02</internalNodes>
          <leafValues>
            -8.6366647481918335e-01 -5.7219249010086060e-01</leafValues></_>
        <_>
          <internalNodes>
            0 -1 48 5.4793827235698700e-02</internalNodes>
          <leafValues>
            -4.9146690964698792e-01 3.9410725235939026e-02</leafValues></_>
        <_>
          <internalNodes>
            0 -1 2 5.3716406226158142e-02</internalNodes>
          <leafValues>
            -1.5641093254089355e-01 5.0238233804702759e-01</leafValues></_>
        <_>
          <internalNodes>
            0 -1 206 5.6988067924976349e-02</internalNodes>
          <leafValues>
            -1.1230993270874023e-01 5.2542179822921753e-01</leafValues></_>
        <_>
          <internalNodes>
            0 -1 250 3.3228509128093719e-02</internalNodes>
          <leafValues>
            1.2384185194969177e-01 -4.6473166346549988e-01</leafValues></_>
        <_>
          <internalNodes>
            0 -1 166 4.4889003038406372e-02</internalNodes>
          <leafValues>
            -7.8185960650444031e-02 5.6774032115936279e-01</leafValues></_>
        <_>
          <internalNodes>
            0 -1 186 3.9088353514671326e-02</internalNodes>
          <leafValues>
            1.3233758509159088e-01 -3.5247787833213806e-01</leafValues></_>
        <_>
          <internalNodes>
            0 -1 233 3.3741913735866547e-02</internalNodes>
          <leafValues>
            -2.2166250646114349e-01 2.3387034237384796e-01</leafValues></_>
        <_>
          <internalNodes>
            0 -1 66 3.4977994859218597e-02</internalNodes>
          <leafValues>
            -2.1263268589973450e-01 2.0167770981788635e-01</leafValues></_>
        <_>
          <internalNodes>
            0 -1 119 4.5234143733978271e-02</internalNodes>
          <leafValues>
            -1.3956858217716217e-01 3.8521218299865723e-01</leafValues></_>
        <_>
          <internalNodes>
            0 -1 227 3.3086948096752167e-02</internalNodes>
          <leafValues>
            -1.7932333052158356e-01 2.2263967990875244e-01</leafValues></_>
        <_>
          <internalNodes>
            0 -1 83 4.3504051864147186e-03</internalNodes>
          <leafValues>
            -7.2320079803466797e-01 5.3667649626731873e-02</leafValues></_>
        <_>
          <internalNodes>
            0 -1 68 8.6957570165395737e-03</internalNodes>
          <leafValues>
            2.7072101831436157e-01 -1.6767145693302155e-01</leafValues></_>
        <_>
          <internalNodes>
            0 -1 42 3.5163898020982742e-02</internalNodes>
          <leafValues>
            -1.4360828697681427e-01 3.6914789676666260e-01</leafValues></_>
        <_>
          <internalNodes>
            0 -1 58 3.7580143660306931e-02</internalNodes>
          <leafValues>
            -1.6959093511104584e-01 2.4594412744045258e-01</leafValues></_>
        <_>
          <internalNodes>
            0 -1 108 1.2859828770160675e-02</internalNodes>
          <leafValues>
            -3.2795673608779907e-01 1.2387778609991074e-01</leafValues></_>
        <_>
          <internalNodes>
            0 -1 215 9.5595680177211761e-03</internalNodes>
          <leafValues>
            3.1988722085952759e-01 -1.4164237678050995e-01</leafValues></_>
        <_>
          <internalNodes>
            0 -1 217 3.7984750233590603e-03</internalNodes>
          <leafValues>
            -7.9772108793258667e-01 6.0262091457843781e-02</leafValues></_>
        <_>
          <internalNodes>
            0 -1 3 3.7987530231475830e-02</internalNodes>
          <leafValues>
            -1.4454516768455505e-01 2.3947574198246002e-01</leafValues></_>
        <_>
          <internalNodes>
            0 -1 239 2.0041584968566895e-02</internalNodes>
          <leafValues>
            1.4073534309864044e-01 -2.2376552224159241e-01</leafValues></_></weakClassifiers></_>
    <!-- stage 5 -->
    <_>
      <maxWeakCount>25</maxWeakCount>
      <stageThreshold>-1.6717566251754761e+00</stageThreshold>
      <weakClassifiers>
        <_>
          <internalNodes>
            0 -1 183 6.0021117329597473e-02</internalNodes>
          <leafValues>
            -8.1089109182357788e-01 -3.9748954772949219e-01</leafValues></_>
        <_>
          <internalNodes>
            0 -1 220 4.5767184346914291e-02</internalNodes>
          <leafValues>
            -4.2243912816047668e-01 2.0296551287174225e-02</leafValues></_>
        <_>
          <internalNodes>
            0 -1 8 4.4695936143398285e-02</internalNodes>
          <leafValues>
            1.0930247604846954e-01 -4.5327654480934143e-01</leafValues></_>
        <_>
          <internalNodes>
            0 -1 66 6.5631434321403503e-02</internalNodes>
          <leafValues>
            -1.1041538417339325e-01 4.0771669149398804e-01</leafValues></_>
        <_>
          <internalNodes>
            0 -1 31 4.6647034585475922e-02</internalNodes>
          <leafValues>
            -8.2277022302150726e-02 3.6524775624275208e-01</leafValues></_>
        <_>
          <internalNodes>
            0 -1 228 1.5966542065143585e-02</internalNodes>
          <leafValues>
            -6.2089812755584717e-01 6.5544098615646362e-02</leafValues></_>
        <_>
          <internalNodes>
            0 -1 151 4.2112510651350021e-02</internalNodes>
          <leafValues>
            -1.1068879067897797e-01 3.7265676259994507e-01</leafValues></_>
        <_>
          <internalNodes>
            0 -1 44 2.0639628171920776e-02</internalNodes>
          <leafValues>
            1.2462879717350006e-01 -3.8118770718574524e-01</leafValues></_>
        <_>
          <internalNodes>
            0 -1 161 3.6683745682239532e-02</internalNodes>
          <leafValues>
            -1.1645431071519852e-01 4.1728243231773376e-01</leafValues></_>
        <_>
          <internalNodes>
            0 -1 183 2.8071079403162003e-02</internalNodes>
          <leafValues>
            -1.9489783048629761e-01 2.1330235898494720e-01</leafValues></_>
        <_>
          <internalNodes>
            0 -1 185 3.1598784029483795e-02</internalNodes>
          <leafValues>
            1.1378157138824463e-01 -3.5678091645240784e-01</leafValues></_>
        <_>
          <internalNodes>
            0 -1 208 3.6289244890213013e-02</internalNodes>
          <leafValues>
            1.2632103264331818e-01 -3.4352514147758484e-01</leafValues></_>
        <_>
          <internalNodes>
            0 -1 48 1.7636321485042572e-02</internalNodes>
          <leafValues>
            -5.6180876493453979e-01 6.5153151750564575e-02</leafValues></_>
        <_>
          <internalNodes>
            0 -1 165 3.1312666833400726e-02</internalNodes>
          <leafValues>
            -1.2854784727096558e-01 2.8984573483467102e-01</leafValues></_>
        <_>
          <internalNodes>
            0 -1 59 5.3546801209449768e-02</internalNodes>
          <leafValues>
            -1.1895249783992767e-01 3.3317875862121582e-01</leafValues></_>
        <_>
          <internalNodes>
            0 -1 64 1.2650648131966591e-02</internalNodes>
          <leafValues>
            -3.2125285267829895e-01 1.1795672774314880e-01</leafValues></_>
        <_>
          <internalNodes>
            0 -1 2 2.7206134051084518e-02</internalNodes>
          <leafValues>
            -1.8932214379310608e-01 2.0512324571609497e-01</leafValues></_>
        <_>
          <internalNodes>
            0 -1 51 3.6418538540601730e-02</internalNodes>
          <leafValues>
            6.4739599823951721e-02 -5.6513512134552002e-01</leafValues></_>
        <_>
          <internalNodes>
            0 -1 114 9.3861587345600128e-02</internalNodes>
          <leafValues>
            2.4460108950734138e-02 -9.7101843357086182e-01</leafValues></_>
        <_>
          <internalNodes>
            0 -1 205 4.8189334571361542e-02</internalNodes>
          <leafValues>
            -1.1843830347061157e-01 3.1000468134880066e-01</leafValues></_>
        <_>
          <internalNodes>
            0 -1 181 1.2717269361019135e-02</internalNodes>
          <leafValues>
            2.6438400149345398e-01 -1.5858724713325500e-01</leafValues></_>
        <_>
          <internalNodes>
            0 -1 169 1.4833590015769005e-02</internalNodes>
          <leafValues>
            2.5839594006538391e-01 -1.3105520606040955e-01</leafValues></_>
        <_>
          <internalNodes>
            0 -1 227 6.2092445790767670e-02</internalNodes>
          <leafValues>
            -8.2274667918682098e-02 3.6845502257347107e-01</leafValues></_>
        <_>
          <internalNodes>
            0 -1 218 4.9495421350002289e-02</internalNodes>
          <leafValues>
            -7.2304815053939819e-02 3.9615619182586670e-01</leafValues></_>
        <_>
          <internalNodes>
            0 -1 81 2.0569795742630959e-02</internalNodes>
          <leafValues>
            2.1017451584339142e-01 -1.6082932054996490e-01</leafValues></_></weakClassifiers></_>
    <!-- stage 6 -->
    <_>
      <maxWeakCount>28</maxWeakCount>
      <stageThreshold>-1.8060826063156128e+00</stageThreshold>
      <weakClassifiers>
        <_>
          <internalNodes>
            0 -1 183 4.0389940142631531e-02</internalNodes>
          <leafValues>
            -8.3400577306747437e-01 -5.4580152034759521e-01</leafValues></_>
        <_>
          <internalNodes>
            0 -1 3 1.6417596489191055e-02</internalNodes>
          <leafValues>
            -5.4660469293594360e-01 -1.0583456605672836e-01</leafValues></_>
        <_>
          <internalNodes>
            0 -1 228 2.5573907420039177e-02</internalNodes>
          <leafValues>
            -4.6951052546501160e-01 1.0317497700452805e-01</leafValues></_>
        <_>
          <internalNodes>
            0 -1 109 1.4194022864103317e-02</internalNodes>
          <leafValues>
            -2.4632379412651062e-01 2.0649115741252899e-01</leafValues></_>
        <_>
          <internalNodes>
            0 -1 48 6.8755425512790680e-02</internalNodes>
          <leafValues>
            -1.3881030678749084e-01 2.8602430224418640e-01</leafValues></_>
        <_>
          <internalNodes>
            0 -1 146 2.7575584128499031e-02</internalNodes>
          <leafValues>
            -1.8885196745395660e-01 2.4177709221839905e-01</leafValues></_>
        <_>
          <internalNodes>
            0 -1 166 9.6059916540980339e-04</internalNodes>
          <leafValues>
            -8.7042725086212158e-01 6.4011141657829285e-02</leafValues></_>
        <_>
          <internalNodes>
            0 -1 177 4.1846577078104019e-03</internalNodes>
          <leafValues>
            -7.6844453811645508e-01 3.1379822641611099e-02</leafValues></_>
        <_>
          <internalNodes>
            0 -1 160 5.9701148420572281e-02</internalNodes>
          <leafValues>
            -7.4329130351543427e-02 5.2913272380828857e-01</leafValues></_>
        <_>
          <internalNodes>
            0 -1 73 4.2025994509458542e-02</internalNodes>
          <leafValues>
            -2.4637219309806824e-01 1.5246731042861938e-01</leafValues></_>
        <_>
          <internalNodes>
            0 -1 234 3.1748127192258835e-02</internalNodes>
          <leafValues>
            -1.8033508956432343e-01 1.7921859025955200e-01</leafValues></_>
        <_>
          <internalNodes>
            0 -1 221 1.6953706741333008e-02</internalNodes>
          <leafValues>
            2.4030685424804688e-01 -1.4097410440444946e-01</leafValues></_>
        <_>
          <internalNodes>
            0 -1 245 2.8595358133316040e-02</internalNodes>
          <leafValues>
            1.1501602828502655e-01 -2.4853304028511047e-01</leafValues></_>
        <_>
          <internalNodes>
            0 -1 162 6.4843390136957169e-03</internalNodes>
          <leafValues>
            -5.3328263759613037e-01 6.4037397503852844e-02</leafValues></_>
        <_>
          <internalNodes>
            0 -1 50 3.7628854624927044e-03</internalNodes>
          <leafValues>
            5.3407007455825806e-01 -6.9674916565418243e-02</leafValues></_>
        <_>
          <internalNodes>
            0 -1 183 9.2438478022813797e-03</internalNodes>
          <leafValues>
            -3.6938992142677307e-01 8.9365221560001373e-02</leafValues></_>
        <_>
          <internalNodes>
            0 -1 42 5.8562152087688446e-02</internalNodes>
          <leafValues>
            -6.1597220599651337e-02 4.6452525258064270e-01</leafValues></_>
        <_>
          <internalNodes>
            0 -1 31 2.7374632656574249e-02</internalNodes>
          <leafValues>
            -2.1969634294509888e-01 1.5959422290325165e-01</leafValues></_>
        <_>
          <internalNodes>
            0 -1 6 1.1771710589528084e-02</internalNodes>
          <leafValues>
            3.0843338370323181e-01 -1.5604007244110107e-01</leafValues></_>
        <_>
          <internalNodes>
            0 -1 87 2.2530224174261093e-02</internalNodes>
          <leafValues>
            -1.8293689191341400e-01 1.7779453098773956e-01</leafValues></_>
        <_>
          <internalNodes>
            0 -1 9 8.7022203952074051e-03</internalNodes>
          <leafValues>
            -3.8154563307762146e-01 8.4731698036193848e-02</leafValues></_>
        <_>
          <internalNodes>
            0 -1 100 2.9604770243167877e-02</internalNodes>
          <leafValues>
            -1.0687445104122162e-01 3.2826673984527588e-01</leafValues></_>
        <_>
          <internalNodes>
            0 -1 134 8.6833797395229340e-03</internalNodes>
          <leafValues>
            -6.0324794054031372e-01 5.0318166613578796e-02</leafValues></_>
        <_>
          <internalNodes>
            0 -1 45 3.1155800446867943e-02</internalNodes>
          <leafValues>
            7.0104315876960754e-02 -3.6494585871696472e-01</leafValues></_>
        <_>
          <internalNodes>
            0 -1 124 7.0960886776447296e-02</internalNodes>
          <leafValues>
            -5.4852634668350220e-02 5.2059870958328247e-01</leafValues></_>
        <_>
          <internalNodes>
            0 -1 228 7.2534166276454926e-02</internalNodes>
          <leafValues>
            -1.0687221586704254e-01 2.7701115608215332e-01</leafValues></_>
        <_>
          <internalNodes>
            0 -1 182 5.3290210664272308e-02</internalNodes>
          <leafValues>
            -9.1737248003482819e-02 3.2577577233314514e-01</leafValues></_>
        <_>
          <internalNodes>
            0 -1 204 1.2834103778004646e-02</internalNodes>
          <leafValues>
            -3.6785930395126343e-01 8.7780334055423737e-02</leafValues></_></weakClassifiers></_>
    <!-- stage 7 -->
    <_>
      <maxWeakCount>23</maxWeakCount>
      <stageThreshold>-1.8435655832290649e+00</stageThreshold>
      <weakClassifiers>
        <_>
          <internalNodes>
            0 -1 166 5.7062081992626190e-02</internalNodes>
          <leafValues>
            -7.9944545030593872e-01 -3.1578946858644485e-02</leafValues></_>
        <_>
          <internalNodes>
            0 -1 3 3.3274225890636444e-02</internalNodes>
          <leafValues>
            -4.4940659403800964e-01 8.7452039122581482e-02</leafValues></_>
        <_>
          <internalNodes>
            0 -1 228 5.1338061690330505e-02</internalNodes>
          <leafValues>
            -2.7892172336578369e-01 2.2864726185798645e-01</leafValues></_>
        <_>
          <internalNodes>
            0 -1 186 2.1388959139585495e-02</internalNodes>
          <leafValues>
            2.4725131690502167e-01 -2.5398093461990356e-01</leafValues></_>
        <_>
          <internalNodes>
            0 -1 152 1.8258817493915558e-02</internalNodes>
          <leafValues>
            -2.2542448341846466e-01 2.2855463624000549e-01</leafValues></_>
        <_>
          <internalNodes>
            0 -1 48 5.4783709347248077e-02</internalNodes>
          <leafValues>
            -2.0962703227996826e-01 2.8582042455673218e-01</leafValues></_>
        <_>
          <internalNodes>
            0 -1 166 6.8140332587063313e-03</internalNodes>
          <leafValues>
            -4.7160503268241882e-01 1.0807514190673828e-01</leafValues></_>
        <_>
          <internalNodes>
            0 -1 239 4.5155823230743408e-02</internalNodes>
          <leafValues>
            7.4455305933952332e-02 -6.0132986307144165e-01</leafValues></_>
        <_>
          <internalNodes>
            0 -1 84 5.4608806967735291e-03</internalNodes>
          <leafValues>
            -5.1793420314788818e-01 5.9112660586833954e-02</leafValues></_>
        <_>
          <internalNodes>
            0 -1 254 4.7837212681770325e-02</internalNodes>
          <leafValues>
            -2.2701685130596161e-01 1.8400694429874420e-01</leafValues></_>
        <_>
          <internalNodes>
            0 -1 0 4.9996446818113327e-02</internalNodes>
          <leafValues>
            7.1914501488208771e-02 -5.5766916275024414e-01</leafValues></_>
        <_>
          <internalNodes>
            0 -1 50 1.1444279924035072e-02</internalNodes>
          <leafValues>
            2.3041675984859467e-01 -1.6317152976989746e-01</leafValues></_>
        <_>
          <internalNodes>
            0 -1 159 1.2092669494450092e-02</internalNodes>
          <leafValues>
            -2.1036604046821594e-01 1.9745194911956787e-01</leafValues></_>
        <_>
          <internalNodes>
            0 -1 137 4.0810577571392059e-02</internalNodes>
          <leafValues>
            8.1292092800140381e-02 -3.7954702973365784e-01</leafValues></_>
        <_>
          <internalNodes>
            0 -1 41 2.1408505737781525e-02</internalNodes>
          <leafValues>
            -3.2111129164695740e-01 1.1167052388191223e-01</leafValues></_>
        <_>
          <internalNodes>
            0 -1 207 4.4829688966274261e-02</internalNodes>
          <leafValues>
            -9.1269880533218384e-02 3.8269242644309998e-01</leafValues></_>
        <_>
          <internalNodes>
            0 -1 56 3.4337744116783142e-02</internalNodes>
          <leafValues>
            7.9319678246974945e-02 -4.3784281611442566e-01</leafValues></_>
        <_>
          <internalNodes>
            0 -1 238 1.9382586702704430e-02</internalNodes>
          <leafValues>
            1.8643820285797119e-01 -1.6388581693172455e-01</leafValues></_>
        <_>
          <internalNodes>
            0 -1 168 1.6543582081794739e-02</internalNodes>
          <leafValues>
            1.8274216353893280e-01 -1.9795438647270203e-01</leafValues></_>
        <_>
          <internalNodes>
            0 -1 54 5.4611809551715851e-02</internalNodes>
          <leafValues>
            -7.9036772251129150e-02 3.8954600691795349e-01</leafValues></_>
        <_>
          <internalNodes>
            0 -1 100 3.4104795195162296e-03</internalNodes>
          <leafValues>
            -4.4364881515502930e-01 6.7299261689186096e-02</leafValues></_>
        <_>
          <internalNodes>
            0 -1 240 4.8804022371768951e-02</internalNodes>
          <leafValues>
            3.3491194248199463e-02 -7.8222405910491943e-01</leafValues></_>
        <_>
          <internalNodes>
            0 -1 183 2.1136943250894547e-02</internalNodes>
          <leafValues>
            -2.0652827620506287e-01 1.2581700086593628e-01</leafValues></_></weakClassifiers></_>
    <!-- stage 8 -->
    <_>
      <maxWeakCount>21</maxWeakCount>
      <stageThreshold>-1.7425040006637573e+00</stageThreshold>
      <weakClassifiers>
        <_>
          <internalNodes>
            0 -1 228 6.2062572687864304e-02</internalNodes>
          <leafValues>
            -8.5260772705078125e-01 -4.6262624859809875e-01</leafValues></_>
        <_>
          <internalNodes>
            0 -1 79 1.3213792815804482e-02</internalNodes>
          <leafValues>
            1.2452060729265213e-01 -4.7511479258537292e-01</leafValues></_>
        <_>
          <internalNodes>
            0 -1 48 6.1550926417112350e-02</internalNodes>
          <leafValues>
            -2.4504239857196808e-01 3.2843920588493347e-01</leafValues></_>
        <_>
          <internalNodes>
            0 -1 7 1.0962152853608131e-02</internalNodes>
          <leafValues>
            3.8830846548080444e-01 -1.5820568799972534e-01</leafValues></_>
        <_>
          <internalNodes>
            0 -1 239 1.6614031046628952e-02</internalNodes>
          <leafValues>
            2.2295054793357849e-01 -2.2188448905944824e-01</leafValues></_>
        <_>
          <internalNodes>
            0 -1 50 2.3848664015531540e-02</internalNodes>
          <leafValues>
            1.5378001332283020e-01 -2.8173100948333740e-01</leafValues></_>
        <_>
          <internalNodes>
            0 -1 125 4.0910415351390839e-02</internalNodes>
          <leafValues>
            -8.3955042064189911e-02 4.4547230005264282e-01</leafValues></_>
        <_>
          <internalNodes>
            0 -1 160 6.1324380338191986e-02</internalNodes>
          <leafValues>
            -6.8869531154632568e-02 5.7892233133316040e-01</leafValues></_>
        <_>
          <internalNodes>
            0 -1 205 5.1471017301082611e-02</internalNodes>
          <leafValues>
            -7.2619274258613586e-02 3.5674837231636047e-01</leafValues></_>
        <_>
          <internalNodes>
            0 -1 179 2.3034112527966499e-02</internalNodes>
          <leafValues>
            1.6525135934352875e-01 -2.6281756162643433e-01</leafValues></_>
        <_>
          <internalNodes>
            0 -1 254 4.6374775469303131e-02</internalNodes>
          <leafValues>
            -2.0689654350280762e-01 2.0538468658924103e-01</leafValues></_>
        <_>
          <internalNodes>
            0 -1 102 3.7002414464950562e-02</internalNodes>
          <leafValues>
            -1.3340291380882263e-01 2.8917726874351501e-01</leafValues></_>
        <_>
          <internalNodes>
            0 -1 46 1.5577508136630058e-02</internalNodes>
          <leafValues>
            2.2290092706680298e-01 -2.1225309371948242e-01</leafValues></_>
        <_>
          <internalNodes>
            0 -1 102 5.0104176625609398e-03</internalNodes>
          <leafValues>
            -6.4878612756729126e-01 5.9272918850183487e-02</leafValues></_>
        <_>
          <internalNodes>
            0 -1 166 2.6867864653468132e-02</internalNodes>
          <leafValues>
            -1.2510894238948822e-01 2.5384932756423950e-01</leafValues></_>
        <_>
          <internalNodes>
            0 -1 216 1.3346079736948013e-02</internalNodes>
          <leafValues>
            2.0228257775306702e-01 -1.4434839785099030e-01</leafValues></_>
        <_>
          <internalNodes>
            0 -1 134 3.8756411522626877e-02</internalNodes>
          <leafValues>
            -1.4713053405284882e-01 2.0295155048370361e-01</leafValues></_>
        <_>
          <internalNodes>
            0 -1 144 3.3137626945972443e-02</internalNodes>
          <leafValues>
            -9.9896423518657684e-02 3.6489170789718628e-01</leafValues></_>
        <_>
          <internalNodes>
            0 -1 10 6.8931773304939270e-02</internalNodes>
          <leafValues>
            3.2220270484685898e-02 -1.</leafValues></_>
        <_>
          <internalNodes>
            0 -1 2 6.3904836773872375e-02</internalNodes>
          <leafValues>
            -9.9825367331504822e-02 4.0881881117820740e-01</leafValues></_>
        <_>
          <internalNodes>
            0 -1 111 3.6944005638360977e-02</internalNodes>
          <leafValues>
            -7.3910482227802277e-02 3.8475102186203003e-01</leafValues></_></weakClassifiers></_>
    <!-- stage 9 -->
    <_>
      <maxWeakCount>38</maxWeakCount>
      <stageThreshold>-1.7625074386596680e+00</stageThreshold>
      <weakClassifiers>
        <_>
          <internalNodes>
            0 -1 77 3.6801684647798538e-02</internalNodes>
          <leafValues>
            -8.0714637041091919e-01 -3.8888889551162720e-01</leafValues></_>
        <_>
          <internalNodes>
            0 -1 3 1.6416810452938080e-02</internalNodes>
          <leafValues>
            -5.4534316062927246e-01 -1.1710937321186066e-01</leafValues></_>
        <_>
          <internalNodes>
            0 -1 11 1.3148803263902664e-02</internalNodes>
          <leafValues>
            -2.9463243484497070e-01 1.2554343044757843e-01</leafValues></_>
        <_>
          <internalNodes>
            0 -1 73 2.0569298416376114e-02</internalNodes>
          <leafValues>
            -5.0948995351791382e-01 7.2200752794742584e-02</leafValues></_>
        <_>
          <internalNodes>
            0 -1 31 1.5937883406877518e-02</internalNodes>
          <leafValues>
            -3.4911519289016724e-01 1.1505888402462006e-01</leafValues></_>
        <_>
          <internalNodes>
            0 -1 6 1.8965739756822586e-02</internalNodes>
          <leafValues>
            2.2141684591770172e-01 -1.6639016568660736e-01</leafValues></_>
        <_>
          <internalNodes>
            0 -1 207 1.6095727682113647e-02</internalNodes>
          <leafValues>
            -2.5175401568412781e-01 1.0338098555803299e-01</leafValues></_>
        <_>
          <internalNodes>
            0 -1 228 6.3533887267112732e-02</internalNodes>
          <leafValues>
            -1.4847137033939362e-01 2.6588255167007446e-01</leafValues></_>
        <_>
          <internalNodes>
            0 -1 160 4.8348240554332733e-02</internalNodes>
          <leafValues>
            -8.0431520938873291e-02 4.6073651313781738e-01</leafValues></_>
        <_>
          <internalNodes>
            0 -1 103 2.4750392884016037e-02</internalNodes>
          <leafValues>
            -2.2646227478981018e-01 1.5838494896888733e-01</leafValues></_>
        <_>
          <internalNodes>
            0 -1 205 1.4375505968928337e-02</internalNodes>
          <leafValues>
            -3.0529060959815979e-01 9.4551041722297668e-02</leafValues></_>
        <_>
          <internalNodes>
            0 -1 227 2.5457041338086128e-02</internalNodes>
          <leafValues>
            -2.2735555469989777e-01 1.3649608194828033e-01</leafValues></_>
        <_>
          <internalNodes>
            0 -1 169 3.8213580846786499e-02</internalNodes>
          <leafValues>
            1.1189901828765869e-01 -3.3667430281639099e-01</leafValues></_>
        <_>
          <internalNodes>
            0 -1 176 1.9355002790689468e-02</internalNodes>
          <leafValues>
            -2.1752411127090454e-01 1.5552432835102081e-01</leafValues></_>
        <_>
          <internalNodes>
            0 -1 45 5.4414398968219757e-02</internalNodes>
          <leafValues>
            3.2440934330224991e-02 -8.9551341533660889e-01</leafValues></_>
        <_>
          <internalNodes>
            0 -1 196 4.8982994630932808e-03</internalNodes>
          <leafValues>
            -6.3012975454330444e-01 3.1546078622341156e-02</leafValues></_>
        <_>
          <internalNodes>
            0 -1 183 6.5597258508205414e-02</internalNodes>
          <leafValues>
            -7.3264814913272858e-02 3.7233552336692810e-01</leafValues></_>
        <_>
          <internalNodes>
            0 -1 175 8.4383331239223480e-02</internalNodes>
          <leafValues>
            2.8765231370925903e-02 -7.7702844142913818e-01</leafValues></_>
        <_>
          <internalNodes>
            0 -1 0 6.2197253108024597e-02</internalNodes>
          <leafValues>
            2.5113673880696297e-02 -6.8875157833099365e-01</leafValues></_>
        <_>
          <internalNodes>
            0 -1 156 5.6279916316270828e-03</internalNodes>
          <leafValues>
            -6.1278206110000610e-01 3.2261755317449570e-02</leafValues></_>
        <_>
          <internalNodes>
            0 -1 246 1.6141969710588455e-02</internalNodes>
          <leafValues>
            2.0605491101741791e-01 -1.0674540698528290e-01</leafValues></_>
        <_>
          <internalNodes>
            0 -1 135 3.5395599901676178e-02</internalNodes>
          <leafValues>
            -2.1166630089282990e-01 1.3755333423614502e-01</leafValues></_>
        <_>
          <internalNodes>
            0 -1 124 2.6805743575096130e-02</internalNodes>
          <leafValues>
            -1.5301525592803955e-01 1.8047432601451874e-01</leafValues></_>
        <_>
          <internalNodes>
            0 -1 72 1.3645564205944538e-02</internalNodes>
          <leafValues>
            3.3610722422599792e-01 -7.9025149345397949e-02</leafValues></_>
        <_>
          <internalNodes>
            0 -1 35 4.9601379781961441e-02</internalNodes>
          <leafValues>
            5.5307451635599136e-02 -4.8446577787399292e-01</leafValues></_>
        <_>
          <internalNodes>
            0 -1 223 3.5779736936092377e-02</internalNodes>
          <leafValues>
            3.9245892316102982e-02 -5.5837357044219971e-01</leafValues></_>
        <_>
          <internalNodes>
            0 -1 27 5.7667808141559362e-04</internalNodes>
          <leafValues>
            -1. 1.8019041046500206e-02</leafValues></_>
        <_>
          <internalNodes>
            0 -1 158 4.1946515440940857e-02</internalNodes>
          <leafValues>
            2.5922952219843864e-02 -6.7176866531372070e-01</leafValues></_>
        <_>
          <internalNodes>
            0 -1 185 3.3918701112270355e-02</internalNodes>
          <leafValues>
            6.6859908401966095e-02 -2.9141125082969666e-01</leafValues></_>
        <_>
          <internalNodes>
            0 -1 253 4.7249525785446167e-02</internalNodes>
          <leafValues>
            -9.7632333636283875e-02 2.0975273847579956e-01</leafValues></_>
        <_>
          <internalNodes>
            0 -1 166 4.3787039816379547e-02</internalNodes>
          <leafValues>
            -5.0641778856515884e-02 4.2221239209175110e-01</leafValues></_>
        <_>
          <internalNodes>
            0 -1 59 3.3054579049348831e-02</internalNodes>
          <leafValues>
            -1.8964765965938568e-01 1.1112011224031448e-01</leafValues></_>
        <_>
          <internalNodes>
            0 -1 145 3.8269966840744019e-02</internalNodes>
          <leafValues>
            -8.2985237240791321e-02 2.7941253781318665e-01</leafValues></_>
        <_>
          <internalNodes>
            0 -1 46 1.9361570477485657e-02</internalNodes>
          <leafValues>
            1.2229952216148376e-01 -2.0701472461223602e-01</leafValues></_>
        <_>
          <internalNodes>
            0 -1 70 3.0732646584510803e-02</internalNodes>
          <leafValues>
            -9.3138501048088074e-02 2.6758250594139099e-01</leafValues></_>
        <_>
          <internalNodes>
            0 -1 66 5.0444196909666061e-02</internalNodes>
          <leafValues>
            -1.1810515075922012e-01 2.0313417911529541e-01</leafValues></_>
        <_>
          <internalNodes>
            0 -1 110 1.0341020533815026e-03</internalNodes>
          <leafValues>
            6.6177588701248169e-01 -3.7112478166818619e-02</leafValues></_>
        <_>
          <internalNodes>
            0 -1 156 5.4689999669790268e-02</internalNodes>
          <leafValues>
            7.4832633137702942e-02 -4.0011852979660034e-01</leafValues></_></weakClassifiers></_>
    <!-- stage 10 -->
    <_>
      <maxWeakCount>43</maxWeakCount>
      <stageThreshold>-1.5791659355163574e+00</stageThreshold>
      <weakClassifiers>
        <_>
          <internalNodes>
            0 -1 40 1.0015221312642097e-02</internalNodes>
          <leafValues>
            -6.0784316062927246e-01 -8.0777776241302490e-01</leafValues></_>
        <_>
          <internalNodes>
            0 -1 3 4.7726865857839584e-02</internalNodes>
          <leafValues>
            -3.4017056226730347e-01 2.6700787246227264e-02</leafValues></_>
        <_>
          <internalNodes>
            0 -1 254 2.4148805066943169e-02</internalNodes>
          <leafValues>
            -4.0706482529640198e-01 7.7336199581623077e-02</leafValues></_>
        <_>
          <internalNodes>
            0 -1 166 3.8873702287673950e-02</internalNodes>
          <leafValues>
            -5.8002870529890060e-02 4.1001865267753601e-01</leafValues></_>
        <_>
          <internalNodes>
            0 -1 48 9.9351719021797180e-02</internalNodes>
          <leafValues>
            -7.1079827845096588e-02 3.3726453781127930e-01</leafValues></_>
        <_>
          <internalNodes>
            0 -1 18 2.5469765067100525e-02</internalNodes>
          <leafValues>
            -1.6389891505241394e-01 1.6938464343547821e-01</leafValues></_>
        <_>
          <internalNodes>
            0 -1 93 7.1763619780540466e-04</internalNodes>
          <leafValues>
            -8.6382162570953369e-01 2.1747950464487076e-02</leafValues></_>
        <_>
          <internalNodes>
            0 -1 55 7.4169086292386055e-03</internalNodes>
          <leafValues>
            -3.3649685978889465e-01 6.5505757927894592e-02</leafValues></_>
        <_>
          <internalNodes>
            0 -1 180 2.1944303065538406e-02</internalNodes>
          <leafValues>
            1.2192182242870331e-01 -1.7663523554801941e-01</leafValues></_>
        <_>
          <internalNodes>
            0 -1 205 3.3251967281103134e-02</internalNodes>
          <leafValues>
            -1.6065010428428650e-01 1.9557231664657593e-01</leafValues></_>
        <_>
          <internalNodes>
            0 -1 104 5.1920495927333832e-02</internalNodes>
          <leafValues>
            -9.3272857367992401e-02 2.4451100826263428e-01</leafValues></_>
        <_>
          <internalNodes>
            0 -1 183 2.8734438121318817e-02</internalNodes>
          <leafValues>
            -1.6581906378269196e-01 1.5396267175674438e-01</leafValues></_>
        <_>
          <internalNodes>
            0 -1 100 2.9611211270093918e-02</internalNodes>
          <leafValues>
            -8.3018131554126740e-02 2.6576083898544312e-01</leafValues></_>
        <_>
          <internalNodes>
            0 -1 90 9.6690412610769272e-03</internalNodes>
          <leafValues>
            -3.1855341792106628e-01 7.8735634684562683e-02</leafValues></_>
        <_>
          <internalNodes>
            0 -1 76 3.1435020267963409e-02</internalNodes>
          <leafValues>
            5.9061191976070404e-02 -3.5300099849700928e-01</leafValues></_>
        <_>
          <internalNodes>
            0 -1 165 6.3381288200616837e-03</internalNodes>
          <leafValues>
            -4.0029126405715942e-01 5.8507531881332397e-02</leafValues></_>
        <_>
          <internalNodes>
            0 -1 46 3.3965021371841431e-02</internalNodes>
          <leafValues>
            6.0624942183494568e-02 -3.6896643042564392e-01</leafValues></_>
        <_>
          <internalNodes>
            0 -1 70 3.4322287887334824e-02</internalNodes>
          <leafValues>
            -8.2029737532138824e-02 3.0503442883491516e-01</leafValues></_>
        <_>
          <internalNodes>
            0 -1 254 7.6302289962768555e-02</internalNodes>
          <leafValues>
            -9.9011816084384918e-02 2.1556369960308075e-01</leafValues></_>
        <_>
          <internalNodes>
            0 -1 179 6.8430700339376926e-03</internalNodes>
          <leafValues>
            3.2253298163414001e-01 -7.2399742901325226e-02</leafValues></_>
        <_>
          <internalNodes>
            0 -1 173 5.2473614923655987e-03</internalNodes>
          <leafValues>
            -6.1912596225738525e-01 3.6191143095493317e-02</leafValues></_>
        <_>
          <internalNodes>
            0 -1 204 8.9688152074813843e-03</internalNodes>
          <leafValues>
            -4.5083951950073242e-01 4.5993033796548843e-02</leafValues></_>
        <_>
          <internalNodes>
            0 -1 124 1.0783220827579498e-01</internalNodes>
          <leafValues>
            -3.1075034290552139e-02 7.1502774953842163e-01</leafValues></_>
        <_>
          <internalNodes>
            0 -1 222 4.9264542758464813e-03</internalNodes>
          <leafValues>
            3.1014624238014221e-01 -6.3986517488956451e-02</leafValues></_>
        <_>
          <internalNodes>
            0 -1 186 7.1497336030006409e-02</internalNodes>
          <leafValues>
            3.3340532332658768e-02 -6.2905633449554443e-01</leafValues></_>
        <_>
          <internalNodes>
            0 -1 48 6.7494381219148636e-03</internalNodes>
          <leafValues>
            -8.9710450172424316e-01 1.7123786732554436e-02</leafValues></_>
        <_>
          <internalNodes>
            0 -1 116 3.5823468118906021e-02</internalNodes>
          <leafValues>
            6.3830979168415070e-02 -2.8542163968086243e-01</leafValues></_>
        <_>
          <internalNodes>
            0 -1 178 4.0479302406311035e-02</internalNodes>
          <leafValues>
            -8.0407924950122833e-02 2.4975842237472534e-01</leafValues></_>
        <_>
          <internalNodes>
            0 -1 207 4.3078076094388962e-02</internalNodes>
          <leafValues>
            -7.6297082006931305e-02 2.6514044404029846e-01</leafValues></_>
        <_>
          <internalNodes>
            0 -1 37 5.4984703660011292e-02</internalNodes>
          <leafValues>
            5.0099644809961319e-02 -4.1313239932060242e-01</leafValues></_>
        <_>
          <internalNodes>
            0 -1 7 2.8300618752837181e-02</internalNodes>
          <leafValues>
            1.0052134096622467e-01 -2.1733626723289490e-01</leafValues></_>
        <_>
          <internalNodes>
            0 -1 88 3.7283334881067276e-02</internalNodes>
          <leafValues>
            -9.6639700233936310e-02 2.5696903467178345e-01</leafValues></_>
        <_>
          <internalNodes>
            0 -1 115 2.3822383955121040e-02</internalNodes>
          <leafValues>
            1.2263726443052292e-01 -1.8371658027172089e-01</leafValues></_>
        <_>
          <internalNodes>
            0 -1 129 1.8361603841185570e-02</internalNodes>
          <leafValues>
            -2.5488829612731934e-01 8.9302167296409607e-02</leafValues></_>
        <_>
          <internalNodes>
            0 -1 161 1.4452047180384398e-03</internalNodes>
          <leafValues>
            -7.1989941596984863e-01 2.8026377782225609e-02</leafValues></_>
        <_>
          <internalNodes>
            0 -1 244 2.4375844746828079e-02</internalNodes>
          <leafValues>
            9.7521863877773285e-02 -2.2798208892345428e-01</leafValues></_>
        <_>
          <internalNodes>
            0 -1 238 1.9266672432422638e-02</internalNodes>
          <leafValues>
            1.5178853273391724e-01 -1.6117948293685913e-01</leafValues></_>
        <_>
          <internalNodes>
            0 -1 215 2.8276229277253151e-02</internalNodes>
          <leafValues>
            7.1934729814529419e-02 -2.8528630733489990e-01</leafValues></_>
        <_>
          <internalNodes>
            0 -1 191 1.3339799642562866e-01</internalNodes>
          <leafValues>
            2.1153492853045464e-02 -8.8342326879501343e-01</leafValues></_>
        <_>
          <internalNodes>
            0 -1 225 3.4542676061391830e-02</internalNodes>
          <leafValues>
            4.1580192744731903e-02 -4.0951120853424072e-01</leafValues></_>
        <_>
          <internalNodes>
            0 -1 110 3.1560432165861130e-02</internalNodes>
          <leafValues>
            -8.4406994283199310e-02 2.4263367056846619e-01</leafValues></_>
        <_>
          <internalNodes>
            0 -1 37 1.9956098869442940e-02</internalNodes>
          <leafValues>
            1.6739964485168457e-01 -1.4456370472908020e-01</leafValues></_>
        <_>
          <internalNodes>
            0 -1 226 3.7339441478252411e-02</internalNodes>
          <leafValues>
            -8.2269534468650818e-02 2.6248571276664734e-01</leafValues></_></weakClassifiers></_>
    <!-- stage 11 -->
    <_>
      <maxWeakCount>37</maxWeakCount>
      <stageThreshold>-1.6826885938644409e+00</stageThreshold>
      <weakClassifiers>
        <_>
          <internalNodes>
            0 -1 128 7.7366558834910393e-03</internalNodes>
          <leafValues>
            -4.4881889224052429e-01 -8.0748128890991211e-01</leafValues></_>
        <_>
          <internalNodes>
            0 -1 182 5.5779233574867249e-02</internalNodes>
          <leafValues>
            -3.6371704936027527e-01 1.5491332113742828e-01</leafValues></_>
        <_>
          <internalNodes>
            0 -1 0 1.1172298341989517e-02</internalNodes>
          <leafValues>
            3.0906379222869873e-01 -1.4231930673122406e-01</leafValues></_>
        <_>
          <internalNodes>
            0 -1 228 9.9178642034530640e-02</internalNodes>
          <leafValues>
            -9.2555187642574310e-02 4.3619629740715027e-01</leafValues></_>
        <_>
          <internalNodes>
            0 -1 160 4.8446781933307648e-02</internalNodes>
          <leafValues>
            -7.0991218090057373e-02 3.9930579066276550e-01</leafValues></_>
        <_>
          <internalNodes>
            0 -1 45 5.7721845805644989e-03</internalNodes>
          <leafValues>
            3.2349219918251038e-01 -8.6958982050418854e-02</leafValues></_>
        <_>
          <internalNodes>
            0 -1 2 3.3429071307182312e-02</internalNodes>
          <leafValues>
            -1.5808500349521637e-01 1.8857106566429138e-01</leafValues></_>
        <_>
          <internalNodes>
            0 -1 208 3.6700710654258728e-02</internalNodes>
          <leafValues>
            9.3050464987754822e-02 -3.0296060442924500e-01</leafValues></_>
        <_>
          <internalNodes>
            0 -1 186 1.9103541970252991e-02</internalNodes>
          <leafValues>
            1.9299326837062836e-01 -1.5512341260910034e-01</leafValues></_>
        <_>
          <internalNodes>
            0 -1 66 7.8542388975620270e-02</internalNodes>
          <leafValues>
            -7.8344047069549561e-02 4.0314885973930359e-01</leafValues></_>
        <_>
          <internalNodes>
            0 -1 102 4.8927530646324158e-02</internalNodes>
          <leafValues>
            -7.1509473025798798e-02 3.6996790766716003e-01</leafValues></_>
        <_>
          <internalNodes>
            0 -1 211 3.3393621444702148e-02</internalNodes>
          <leafValues>
            -7.6394207775592804e-02 2.3884169757366180e-01</leafValues></_>
        <_>
          <internalNodes>
            0 -1 89 5.0522178411483765e-02</internalNodes>
          <leafValues>
            3.4980125725269318e-02 -4.5342576503753662e-01</leafValues></_>
        <_>
          <internalNodes>
            0 -1 33 3.0742567032575607e-02</internalNodes>
          <leafValues>
            -1.2163748592138290e-01 1.9303360581398010e-01</leafValues></_>
        <_>
          <internalNodes>
            0 -1 206 3.8862869143486023e-02</internalNodes>
          <leafValues>
            -1.1750345677137375e-01 2.0183444023132324e-01</leafValues></_>
        <_>
          <internalNodes>
            0 -1 181 2.0875858142971992e-02</internalNodes>
          <leafValues>
            1.8121246993541718e-01 -2.0769098401069641e-01</leafValues></_>
        <_>
          <internalNodes>
            0 -1 122 4.4772205874323845e-03</internalNodes>
          <leafValues>
            4.7473111748695374e-01 -4.7736365348100662e-02</leafValues></_>
        <_>
          <internalNodes>
            0 -1 166 2.9556329827755690e-03</internalNodes>
          <leafValues>
            -5.3240728378295898e-01 4.5187246054410934e-02</leafValues></_>
        <_>
          <internalNodes>
            0 -1 225 1.8345363438129425e-02</internalNodes>
          <leafValues>
            9.5230825245380402e-02 -2.1248848736286163e-01</leafValues></_>
        <_>
          <internalNodes>
            0 -1 30 2.0448395982384682e-02</internalNodes>
          <leafValues>
            -1.9053429365158081e-01 1.0400287061929703e-01</leafValues></_>
        <_>
          <internalNodes>
            0 -1 73 5.5246304720640182e-02</internalNodes>
          <leafValues>
            -1.3998281955718994e-01 1.6415743529796600e-01</leafValues></_>
        <_>
          <internalNodes>
            0 -1 13 4.5402798801660538e-02</internalNodes>
          <leafValues>
            -6.8467944860458374e-02 3.0192220211029053e-01</leafValues></_>
        <_>
          <internalNodes>
            0 -1 160 2.1715942770242691e-02</internalNodes>
          <leafValues>
            -1.3756595551967621e-01 1.6252768039703369e-01</leafValues></_>
        <_>
          <internalNodes>
            0 -1 215 7.7206958085298538e-03</internalNodes>
          <leafValues>
            2.6210924983024597e-01 -8.7668225169181824e-02</leafValues></_>
        <_>
          <internalNodes>
            0 -1 7 3.7688806653022766e-02</internalNodes>
          <leafValues>
            6.7783296108245850e-02 -2.6366925239562988e-01</leafValues></_>
        <_>
          <internalNodes>
            0 -1 46 4.0803155861794949e-03</internalNodes>
          <leafValues>
            3.0361366271972656e-01 -6.0607094317674637e-02</leafValues></_>
        <_>
          <internalNodes>
            0 -1 129 8.3300232887268066e-02</internalNodes>
          <leafValues>
            2.6992337778210640e-02 -7.8503727912902832e-01</leafValues></_>
        <_>
          <internalNodes>
            0 -1 205 7.2802945971488953e-02</internalNodes>
          <leafValues>
            -5.3558420389890671e-02 3.6826714873313904e-01</leafValues></_>
        <_>
          <internalNodes>
            0 -1 111 4.8108212649822235e-03</internalNodes>
          <leafValues>
            -3.7989324331283569e-01 5.0480138510465622e-02</leafValues></_>
        <_>
          <internalNodes>
            0 -1 212 4.5523077249526978e-02</internalNodes>
          <leafValues>
            -5.9049516916275024e-02 3.0236458778381348e-01</leafValues></_>
        <_>
          <internalNodes>
            0 -1 239 2.0106382668018341e-02</internalNodes>
          <leafValues>
            1.0335134714841843e-01 -1.9316346943378448e-01</leafValues></_>
        <_>
          <internalNodes>
            0 -1 220 2.4223539978265762e-02</internalNodes>
          <leafValues>
            -2.2028499841690063e-01 8.2513570785522461e-02</leafValues></_>
        <_>
          <internalNodes>
            0 -1 169 1.4885974116623402e-02</internalNodes>
          <leafValues>
            1.9139420986175537e-01 -1.0233155637979507e-01</leafValues></_>
        <_>
          <internalNodes>
            0 -1 92 8.8079106062650681e-03</internalNodes>
          <leafValues>
            2.6606875658035278e-01 -7.3841288685798645e-02</leafValues></_>
        <_>
          <internalNodes>
            0 -1 185 3.1654968857765198e-02</internalNodes>
          <leafValues>
            7.6321408152580261e-02 -2.9498848319053650e-01</leafValues></_>
        <_>
          <internalNodes>
            0 -1 222 2.2203983739018440e-02</internalNodes>
          <leafValues>
            1.0195432603359222e-01 -1.7970533668994904e-01</leafValues></_>
        <_>
          <internalNodes>
            0 -1 193 2.3499526083469391e-02</internalNodes>
          <leafValues>
            -1.6349615156650543e-01 1.3913124799728394e-01</leafValues></_></weakClassifiers></_>
    <!-- stage 12 -->
    <_>
      <maxWeakCount>50</maxWeakCount>
      <stageThreshold>-1.6896905899047852e+00</stageThreshold>
      <weakClassifiers>
        <_>
          <internalNodes>
            0 -1 253 2.6083782315254211e-02</internalNodes>
          <leafValues>
            -8.3600711822509766e-01 -6.9920843839645386e-01</leafValues></_>
        <_>
          <internalNodes>
            0 -1 66 2.5267498567700386e-02</internalNodes>
          <leafValues>
            -4.7239005565643311e-01 -1.4155142009258270e-01</leafValues></_>
        <_>
          <internalNodes>
            0 -1 102 4.5043961144983768e-03</internalNodes>
          <leafValues>
            -6.6421109437942505e-01 3.0335372313857079e-02</leafValues></_>
        <_>
          <internalNodes>
            0 -1 102 4.5305653475224972e-03</internalNodes>
          <leafValues>
            1. -2.3558007087558508e-03</leafValues></_>
        <_>
          <internalNodes>
            0 -1 102 4.5043961144983768e-03</internalNodes>
          <leafValues>
            -8.1309694051742554e-01 8.6932547856122255e-04</leafValues></_>
        <_>
          <internalNodes>
            0 -1 68 3.1300783157348633e-02</internalNodes>
          <leafValues>
            8.2679435610771179e-02 -3.2578372955322266e-01</leafValues></_>
        <_>
          <internalNodes>
            0 -1 161 1.2011178769171238e-02</internalNodes>
          <leafValues>
            -2.3329441249370575e-01 1.0963291674852371e-01</leafValues></_>
        <_>
          <internalNodes>
            0 -1 136 5.9645593166351318e-02</internalNodes>
          <leafValues>
            -6.2855780124664307e-02 3.5678523778915405e-01</leafValues></_>
        <_>
          <internalNodes>
            0 -1 177 8.8750440627336502e-03</internalNodes>
          <leafValues>
            -3.5281997919082642e-01 7.2589769959449768e-02</leafValues></_>
        <_>
          <internalNodes>
            0 -1 165 8.6918659508228302e-03</internalNodes>
          <leafValues>
            -3.1645080447196960e-01 6.5326824784278870e-02</leafValues></_>
        <_>
          <internalNodes>
            0 -1 214 2.7248930186033249e-02</internalNodes>
          <leafValues>
            7.8622728586196899e-02 -2.9116067290306091e-01</leafValues></_>
        <_>
          <internalNodes>
            0 -1 10 1.0516131296753883e-02</internalNodes>
          <leafValues>
            -3.0696013569831848e-01 6.6311523318290710e-02</leafValues></_>
        <_>
          <internalNodes>
            0 -1 166 5.7089727371931076e-02</internalNodes>
          <leafValues>
            -5.7882197201251984e-02 3.4937590360641479e-01</leafValues></_>
        <_>
          <internalNodes>
            0 -1 250 3.4612119197845459e-02</internalNodes>
          <leafValues>
            6.5811604261398315e-02 -3.7840607762336731e-01</leafValues></_>
        <_>
          <internalNodes>
            0 -1 19 1.2565607205033302e-02</internalNodes>
          <leafValues>
            -3.8983610272407532e-01 4.8119891434907913e-02</leafValues></_>
        <_>
          <internalNodes>
            0 -1 5 1.8821287900209427e-02</internalNodes>
          <leafValues>
            1.5507407486438751e-01 -1.5335455536842346e-01</leafValues></_>
        <_>
          <internalNodes>
            0 -1 228 5.2789999172091484e-03</internalNodes>
          <leafValues>
            -1. 1.7518982291221619e-02</leafValues></_>
        <_>
          <internalNodes>
            0 -1 27 2.9259305447340012e-02</internalNodes>
          <leafValues>
            9.3471184372901917e-02 -1.9858375191688538e-01</leafValues></_>
        <_>
          <internalNodes>
            0 -1 2 7.1757897734642029e-02</internalNodes>
          <leafValues>
            -7.6891392469406128e-02 3.8638982176780701e-01</leafValues></_>
        <_>
          <internalNodes>
            0 -1 88 3.4301583655178547e-03</internalNodes>
          <leafValues>
            -6.1872917413711548e-01 2.9538977891206741e-02</leafValues></_>
        <_>
          <internalNodes>
            0 -1 132 4.9621701240539551e-02</internalNodes>
          <leafValues>
            3.0373267829418182e-02 -5.5535066127777100e-01</leafValues></_>
        <_>
          <internalNodes>
            0 -1 170 1.1049020290374756e-01</internalNodes>
          <leafValues>
            2.2748498246073723e-02 -6.1961233615875244e-01</leafValues></_>
        <_>
          <internalNodes>
            0 -1 223 3.3551037311553955e-02</internalNodes>
          <leafValues>
            3.9319656789302826e-02 -3.9118385314941406e-01</leafValues></_>
        <_>
          <internalNodes>
            0 -1 174 1.9078485202044249e-03</internalNodes>
          <leafValues>
            -7.8470456600189209e-01 2.0601797848939896e-02</leafValues></_>
        <_>
          <internalNodes>
            0 -1 128 7.6600252650678158e-03</internalNodes>
          <leafValues>
            2.3959366977214813e-01 -7.4947364628314972e-02</leafValues></_>
        <_>
          <internalNodes>
            0 -1 73 4.1607856750488281e-02</internalNodes>
          <leafValues>
            -1.8895599246025085e-01 9.5490157604217529e-02</leafValues></_>
        <_>
          <internalNodes>
            0 -1 30 9.4704180955886841e-02</internalNodes>
          <leafValues>
            -3.0627097934484482e-02 5.8847498893737793e-01</leafValues></_>
        <_>
          <internalNodes>
            0 -1 98 4.4220397248864174e-03</internalNodes>
          <leafValues>
            -4.6185600757598877e-01 4.0700681507587433e-02</leafValues></_>
        <_>
          <internalNodes>
            0 -1 42 3.1373586505651474e-02</internalNodes>
          <leafValues>
            -1.0322279483079910e-01 1.8264895677566528e-01</leafValues></_>
        <_>
          <internalNodes>
            0 -1 227 3.7406034767627716e-02</internalNodes>
          <leafValues>
            -1.2581478059291840e-01 1.3624373078346252e-01</leafValues></_>
        <_>
          <internalNodes>
            0 -1 31 3.2688215374946594e-02</internalNodes>
          <leafValues>
            -1.4620509743690491e-01 1.3242962956428528e-01</leafValues></_>
        <_>
          <internalNodes>
            0 -1 172 1.0707093402743340e-02</internalNodes>
          <leafValues>
            -2.9598078131675720e-01 6.2719471752643585e-02</leafValues></_>
        <_>
          <internalNodes>
            0 -1 183 5.4143801331520081e-02</internalNodes>
          <leafValues>
            -7.6905548572540283e-02 2.6443710923194885e-01</leafValues></_>
        <_>
          <internalNodes>
            0 -1 95 3.3269207924604416e-03</internalNodes>
          <leafValues>
            4.3645930290222168e-01 -3.8232550024986267e-02</leafValues></_>
        <_>
          <internalNodes>
            0 -1 10 6.9264627993106842e-02</internalNodes>
          <leafValues>
            1.5427617356181145e-02 -1.</leafValues></_>
        <_>
          <internalNodes>
            0 -1 6 1.1263811960816383e-02</internalNodes>
          <leafValues>
            1.6225385665893555e-01 -9.3391910195350647e-02</leafValues></_>
        <_>
          <internalNodes>
            0 -1 32 1.5138352755457163e-03</internalNodes>
          <leafValues>
            -1. 1.4003170654177666e-02</leafValues></_>
        <_>
          <internalNodes>
            0 -1 89 9.2784196138381958e-02</internalNodes>
          <leafValues>
            9.9527360871434212e-03 -1.</leafValues></_>
        <_>
          <internalNodes>
            0 -1 148 5.8642830699682236e-03</internalNodes>
          <leafValues>
            4.7400403022766113e-01 -3.7230577319860458e-02</leafValues></_>
        <_>
          <internalNodes>
            0 -1 189 8.8845239952206612e-03</internalNodes>
          <leafValues>
            -3.3011573553085327e-01 6.8946354091167450e-02</leafValues></_>
        <_>
          <internalNodes>
            0 -1 202 7.1830665692687035e-03</internalNodes>
          <leafValues>
            3.1278437376022339e-01 -5.6284148246049881e-02</leafValues></_>
        <_>
          <internalNodes>
            0 -1 88 3.7202440202236176e-02</internalNodes>
          <leafValues>
            -9.2033766210079193e-02 2.0587210357189178e-01</leafValues></_>
        <_>
          <internalNodes>
            0 -1 183 9.1864001005887985e-03</internalNodes>
          <leafValues>
            -2.9052519798278809e-01 5.0556968897581100e-02</leafValues></_>
        <_>
          <internalNodes>
            0 -1 209 1.1466655880212784e-02</internalNodes>
          <leafValues>
            2.0390880107879639e-01 -9.2168301343917847e-02</leafValues></_>
        <_>
          <internalNodes>
            0 -1 141 7.2164952754974365e-02</internalNodes>
          <leafValues>
            1.4075476676225662e-02 -1.</leafValues></_>
        <_>
          <internalNodes>
            0 -1 154 6.2397494912147522e-03</internalNodes>
          <leafValues>
            -3.3150288462638855e-01 3.8969237357378006e-02</leafValues></_>
        <_>
          <internalNodes>
            0 -1 17 1.7322197090834379e-03</internalNodes>
          <leafValues>
            -7.2365117073059082e-01 1.8208112567663193e-02</leafValues></_>
        <_>
          <internalNodes>
            0 -1 57 1.2515138834714890e-02</internalNodes>
          <leafValues>
            1.9975216686725616e-01 -9.6089199185371399e-02</leafValues></_>
        <_>
          <internalNodes>
            0 -1 101 2.4413753300905228e-02</internalNodes>
          <leafValues>
            -1.1609313637018204e-01 1.5587151050567627e-01</leafValues></_>
        <_>
          <internalNodes>
            0 -1 118 1.5783704817295074e-02</internalNodes>
          <leafValues>
            2.3099970817565918e-01 -8.9079521596431732e-02</leafValues></_></weakClassifiers></_>
    <!-- stage 13 -->
    <_>
      <maxWeakCount>46</maxWeakCount>
      <stageThreshold>-1.5826646089553833e+00</stageThreshold>
      <weakClassifiers>
        <_>
          <internalNodes>
            0 -1 122 1.6038624569773674e-02</internalNodes>
          <leafValues>
            -6.3909775018692017e-01 -8.2057714462280273e-01</leafValues></_>
        <_>
          <internalNodes>
            0 -1 161 4.6588514000177383e-02</internalNodes>
          <leafValues>
            -3.1442403793334961e-01 1.6859969496726990e-01</leafValues></_>
        <_>
          <internalNodes>
            0 -1 183 4.0409289300441742e-02</internalNodes>
          <leafValues>
            -1.2780632078647614e-01 1.9240151345729828e-01</leafValues></_>
        <_>
          <internalNodes>
            0 -1 205 2.7573956176638603e-02</internalNodes>
          <leafValues>
            -1.8498086929321289e-01 1.3430146872997284e-01</leafValues></_>
        <_>
          <internalNodes>
            0 -1 75 2.5882914662361145e-02</internalNodes>
          <leafValues>
            7.4787184596061707e-02 -3.1366646289825439e-01</leafValues></_>
        <_>
          <internalNodes>
            0 -1 2 4.5374028384685516e-02</internalNodes>
          <leafValues>
            -5.4066229611635208e-02 2.6166424155235291e-01</leafValues></_>
        <_>
          <internalNodes>
            0 -1 209 1.6718182712793350e-02</internalNodes>
          <leafValues>
            1.3934652507305145e-01 -1.3446356356143951e-01</leafValues></_>
        <_>
          <internalNodes>
            0 -1 200 9.4381282106041908e-03</internalNodes>
          <leafValues>
            -2.8836092352867126e-01 7.2343751788139343e-02</leafValues></_>
        <_>
          <internalNodes>
            0 -1 121 6.0490295290946960e-02</internalNodes>
          <leafValues>
            -6.8198844790458679e-02 3.1991174817085266e-01</leafValues></_>
        <_>
          <internalNodes>
            0 -1 117 1.0611183941364288e-02</internalNodes>
          <leafValues>
            -2.7352759242057800e-01 7.9125344753265381e-02</leafValues></_>
        <_>
          <internalNodes>
            0 -1 48 7.4529662728309631e-02</internalNodes>
          <leafValues>
            -1.1285762488842010e-01 1.8643201887607574e-01</leafValues></_>
        <_>
          <internalNodes>
            0 -1 108 3.4461714327335358e-02</internalNodes>
          <leafValues>
            -9.7184650599956512e-02 2.1747544407844543e-01</leafValues></_>
        <_>
          <internalNodes>
            0 -1 213 2.3585252463817596e-02</internalNodes>
          <leafValues>
            7.6280169188976288e-02 -2.0605346560478210e-01</leafValues></_>
        <_>
          <internalNodes>
            0 -1 80 3.5361841320991516e-02</internalNodes>
          <leafValues>
            6.6167004406452179e-02 -2.6085767149925232e-01</leafValues></_>
        <_>
          <internalNodes>
            0 -1 53 3.7957042455673218e-02</internalNodes>
          <leafValues>
            -8.4008976817131042e-02 2.3929896950721741e-01</leafValues></_>
        <_>
          <internalNodes>
            0 -1 254 1.7642661929130554e-02</internalNodes>
          <leafValues>
            -4.3934345245361328e-01 3.6575522273778915e-02</leafValues></_>
        <_>
          <internalNodes>
            0 -1 166 2.6872495189309120e-02</internalNodes>
          <leafValues>
            -9.2049770057201385e-02 1.8768280744552612e-01</leafValues></_>
        <_>
          <internalNodes>
            0 -1 188 1.4232054818421602e-03</internalNodes>
          <leafValues>
            5.5810606479644775e-01 -2.7469271793961525e-02</leafValues></_>
        <_>
          <internalNodes>
            0 -1 187 4.3351780623197556e-02</internalNodes>
          <leafValues>
            -4.4052578508853912e-02 3.1841135025024414e-01</leafValues></_>
        <_>
          <internalNodes>
            0 -1 147 2.6988122612237930e-02</internalNodes>
          <leafValues>
            -1.7203800380229950e-01 1.1591833084821701e-01</leafValues></_>
        <_>
          <internalNodes>
            0 -1 66 4.7860823571681976e-02</internalNodes>
          <leafValues>
            -1.1233220249414444e-01 1.5574902296066284e-01</leafValues></_>
        <_>
          <internalNodes>
            0 -1 152 1.8920483067631721e-02</internalNodes>
          <leafValues>
            -1.2548436224460602e-01 1.2561750411987305e-01</leafValues></_>
        <_>
          <internalNodes>
            0 -1 139 2.6003085076808929e-02</internalNodes>
          <leafValues>
            6.7855730652809143e-02 -2.5457471609115601e-01</leafValues></_>
        <_>
          <internalNodes>
            0 -1 240 7.1668997406959534e-03</internalNodes>
          <leafValues>
            -2.5019499659538269e-01 5.1826234906911850e-02</leafValues></_>
        <_>
          <internalNodes>
            0 -1 157 1.1065357364714146e-02</internalNodes>
          <leafValues>
            1.7441476881504059e-01 -9.0462610125541687e-02</leafValues></_>
        <_>
          <internalNodes>
            0 -1 6 2.2264098748564720e-02</internalNodes>
          <leafValues>
            9.7686171531677246e-02 -1.4847318828105927e-01</leafValues></_>
        <_>
          <internalNodes>
            0 -1 31 4.2764045298099518e-02</internalNodes>
          <leafValues>
            -1.1429068446159363e-01 1.9063319265842438e-01</leafValues></_>
        <_>
          <internalNodes>
            0 -1 25 5.1284529268741608e-02</internalNodes>
          <leafValues>
            -4.6799931675195694e-02 3.2400405406951904e-01</leafValues></_>
        <_>
          <internalNodes>
            0 -1 143 5.8168508112430573e-02</internalNodes>
          <leafValues>
            3.6446455866098404e-02 -4.9863213300704956e-01</leafValues></_>
        <_>
          <internalNodes>
            0 -1 194 3.8343712687492371e-02</internalNodes>
          <leafValues>
            4.0304619818925858e-02 -3.4911602735519409e-01</leafValues></_>
        <_>
          <internalNodes>
            0 -1 111 5.3658708930015564e-02</internalNodes>
          <leafValues>
            -3.6613367497920990e-02 4.8203578591346741e-01</leafValues></_>
        <_>
          <internalNodes>
            0 -1 15 3.0985113233327866e-02</internalNodes>
          <leafValues>
            -7.7924095094203949e-02 1.9769096374511719e-01</leafValues></_>
        <_>
          <internalNodes>
            0 -1 99 5.0219997763633728e-02</internalNodes>
          <leafValues>
            3.0691433697938919e-02 -5.2910512685775757e-01</leafValues></_>
        <_>
          <internalNodes>
            0 -1 179 7.3932982981204987e-02</internalNodes>
          <leafValues>
            1.7545687034726143e-02 -7.5601369142532349e-01</leafValues></_>
        <_>
          <internalNodes>
            0 -1 216 1.3462651520967484e-02</internalNodes>
          <leafValues>
            1.2998849153518677e-01 -1.1786523461341858e-01</leafValues></_>
        <_>
          <internalNodes>
            0 -1 113 8.5420802235603333e-02</internalNodes>
          <leafValues>
            1.4318027533590794e-02 -1.</leafValues></_>
        <_>
          <internalNodes>
            0 -1 0 1.9666045904159546e-02</internalNodes>
          <leafValues>
            1.1010458320379257e-01 -1.3876534998416901e-01</leafValues></_>
        <_>
          <internalNodes>
            0 -1 200 7.2571538388729095e-02</internalNodes>
          <leafValues>
            2.0593600347638130e-02 -7.0844238996505737e-01</leafValues></_>
        <_>
          <internalNodes>
            0 -1 119 1.0046161711215973e-01</internalNodes>
          <leafValues>
            -2.4980528280138969e-02 7.3992604017257690e-01</leafValues></_>
        <_>
          <internalNodes>
            0 -1 251 2.4874936789274216e-02</internalNodes>
          <leafValues>
            6.1051007360219955e-02 -2.6719513535499573e-01</leafValues></_>
        <_>
          <internalNodes>
            0 -1 106 2.4243168532848358e-02</internalNodes>
          <leafValues>
            1.2613067030906677e-01 -1.1844838410615921e-01</leafValues></_>
        <_>
          <internalNodes>
            0 -1 247 1.2752480804920197e-01</internalNodes>
          <leafValues>
            1.9118634983897209e-02 -7.6991844177246094e-01</leafValues></_>
        <_>
          <internalNodes>
            0 -1 136 5.9426158666610718e-02</internalNodes>
          <leafValues>
            -5.8723393827676773e-02 2.6571589708328247e-01</leafValues></_>
        <_>
          <internalNodes>
            0 -1 74 3.1995549798011780e-02</internalNodes>
          <leafValues>
            7.1455277502536774e-02 -2.2593064606189728e-01</leafValues></_>
        <_>
          <internalNodes>
            0 -1 49 8.2037188112735748e-03</internalNodes>
          <leafValues>
            -2.4813996255397797e-01 6.2324438244104385e-02</leafValues></_>
        <_>
          <internalNodes>
            0 -1 171 4.4085495173931122e-02</internalNodes>
          <leafValues>
            -5.9333588927984238e-02 2.7704691886901855e-01</leafValues></_></weakClassifiers></_>
    <!-- stage 14 -->
    <_>
      <maxWeakCount>48</maxWeakCount>
      <stageThreshold>-1.5165151357650757e+00</stageThreshold>
      <weakClassifiers>
        <_>
          <internalNodes>
            0 -1 166 7.4129387736320496e-02</internalNodes>
          <leafValues>
            -7.8244632482528687e-01 -4.8717948794364929e-01</leafValues></_>
        <_>
          <internalNodes>
            0 -1 14 5.3923271596431732e-02</internalNodes>
          <leafValues>
            -3.0601835250854492e-01 4.3010424822568893e-02</leafValues></_>
        <_>
          <internalNodes>
            0 -1 119 4.2097792029380798e-02</internalNodes>
          <leafValues>
            -1.0360228270292282e-01 2.0483742654323578e-01</leafValues></_>
        <_>
          <internalNodes>
            0 -1 108 1.1893618851900101e-02</internalNodes>
          <leafValues>
            -2.6470565795898438e-01 7.5963832437992096e-02</leafValues></_>
        <_>
          <internalNodes>
            0 -1 183 6.6652059555053711e-02</internalNodes>
          <leafValues>
            -1.1236900463700294e-02 3.4261691570281982e-01</leafValues></_>
        <_>
          <internalNodes>
            0 -1 142 4.1514601558446884e-02</internalNodes>
          <leafValues>
            -1.2133889645338058e-01 1.3856495916843414e-01</leafValues></_>
        <_>
          <internalNodes>
            0 -1 23 7.6378077268600464e-02</internalNodes>
          <leafValues>
            1.5605885535478592e-02 -1.</leafValues></_>
        <_>
          <internalNodes>
            0 -1 246 1.5950676053762436e-02</internalNodes>
          <leafValues>
            1.6440303623676300e-01 -9.0815238654613495e-02</leafValues></_>
        <_>
          <internalNodes>
            0 -1 135 5.3286164999008179e-02</internalNodes>
          <leafValues>
            -1.0638677328824997e-01 1.5978668630123138e-01</leafValues></_>
        <_>
          <internalNodes>
            0 -1 52 8.4773059934377670e-03</internalNodes>
          <leafValues>
            -2.9654482007026672e-01 3.5640772432088852e-02</leafValues></_>
        <_>
          <internalNodes>
            0 -1 244 1.2799711897969246e-02</internalNodes>
          <leafValues>
            1.9610774517059326e-01 -1.0209655761718750e-01</leafValues></_>
        <_>
          <internalNodes>
            0 -1 139 5.8342453092336655e-02</internalNodes>
          <leafValues>
            -6.4519234001636505e-04 -8.8708859682083130e-01</leafValues></_>
        <_>
          <internalNodes>
            0 -1 155 2.7769990265369415e-02</internalNodes>
          <leafValues>
            1.2163933366537094e-01 -1.2640587985515594e-01</leafValues></_>
        <_>
          <internalNodes>
            0 -1 16 5.7761002331972122e-02</internalNodes>
          <leafValues>
            2.3596018552780151e-02 -7.4546784162521362e-01</leafValues></_>
        <_>
          <internalNodes>
            0 -1 144 3.8305893540382385e-02</internalNodes>
          <leafValues>
            -5.8462888002395630e-02 2.5623318552970886e-01</leafValues></_>
        <_>
          <internalNodes>
            0 -1 230 1.6047511249780655e-02</internalNodes>
          <leafValues>
            1.1988785862922668e-01 -1.2652574479579926e-01</leafValues></_>
        <_>
          <internalNodes>
            0 -1 152 3.4218471497297287e-02</internalNodes>
          <leafValues>
            -6.3366606831550598e-02 2.3025122284889221e-01</leafValues></_>
        <_>
          <internalNodes>
            0 -1 169 1.6246164450421929e-03</internalNodes>
          <leafValues>
            -8.6399078369140625e-01 1.9037419930100441e-02</leafValues></_>
        <_>
          <internalNodes>
            0 -1 210 3.9883747696876526e-02</internalNodes>
          <leafValues>
            -6.8116590380668640e-02 2.2706644237041473e-01</leafValues></_>
        <_>
          <internalNodes>
            0 -1 185 2.3720627650618553e-02</internalNodes>
          <leafValues>
            1.0891614854335785e-01 -2.0392502844333649e-01</leafValues></_>
        <_>
          <internalNodes>
            0 -1 45 4.3522976338863373e-02</internalNodes>
          <leafValues>
            2.9949987307190895e-02 -4.3791729211807251e-01</leafValues></_>
        <_>
          <internalNodes>
            0 -1 160 6.1287365853786469e-02</internalNodes>
          <leafValues>
            -4.7763969749212265e-02 3.2955414056777954e-01</leafValues></_>
        <_>
          <internalNodes>
            0 -1 250 9.4560813158750534e-03</internalNodes>
          <leafValues>
            1.6485615074634552e-01 -9.0816132724285126e-02</leafValues></_>
        <_>
          <internalNodes>
            0 -1 8 2.6561619713902473e-02</internalNodes>
          <leafValues>
            9.3257635831832886e-02 -1.5174958109855652e-01</leafValues></_>
        <_>
          <internalNodes>
            0 -1 89 1.1725592426955700e-02</internalNodes>
          <leafValues>
            -2.7760958671569824e-01 7.4349373579025269e-02</leafValues></_>
        <_>
          <internalNodes>
            0 -1 39 5.2510362118482590e-02</internalNodes>
          <leafValues>
            3.4638952463865280e-02 -4.1023856401443481e-01</leafValues></_>
        <_>
          <internalNodes>
            0 -1 12 2.2017806768417358e-02</internalNodes>
          <leafValues>
            -1.2308345735073090e-01 1.1745233088731766e-01</leafValues></_>
        <_>
          <internalNodes>
            0 -1 5 2.0871951710432768e-03</internalNodes>
          <leafValues>
            4.7351524233818054e-01 -3.1700287014245987e-02</leafValues></_>
        <_>
          <internalNodes>
            0 -1 0 6.2149792909622192e-02</internalNodes>
          <leafValues>
            2.3843970149755478e-02 -6.5390717983245850e-01</leafValues></_>
        <_>
          <internalNodes>
            0 -1 111 5.0670929253101349e-02</internalNodes>
          <leafValues>
            -3.8095369935035706e-02 3.9951133728027344e-01</leafValues></_>
        <_>
          <internalNodes>
            0 -1 209 4.6395741403102875e-02</internalNodes>
          <leafValues>
            5.3178437054157257e-02 -3.1028473377227783e-01</leafValues></_>
        <_>
          <internalNodes>
            0 -1 147 5.1327977329492569e-02</internalNodes>
          <leafValues>
            -6.8328969180583954e-02 1.9092370569705963e-01</leafValues></_>
        <_>
          <internalNodes>
            0 -1 133 9.4921872019767761e-02</internalNodes>
          <leafValues>
            1.4002934098243713e-02 -1.</leafValues></_>
        <_>
          <internalNodes>
            0 -1 183 2.3009192198514938e-02</internalNodes>
          <leafValues>
            -1.5206350386142731e-01 8.8777720928192139e-02</leafValues></_>
        <_>
          <internalNodes>
            0 -1 243 4.8975929617881775e-02</internalNodes>
          <leafValues>
            2.7064817026257515e-02 -4.7298693656921387e-01</leafValues></_>
        <_>
          <internalNodes>
            0 -1 170 3.8976389914751053e-02</internalNodes>
          <leafValues>
            9.6742689609527588e-02 -1.4004905521869659e-01</leafValues></_>
        <_>
          <internalNodes>
            0 -1 199 2.9312144964933395e-02</internalNodes>
          <leafValues>
            9.0766072273254395e-02 -1.6018165647983551e-01</leafValues></_>
        <_>
          <internalNodes>
            0 -1 122 1.6228422522544861e-02</internalNodes>
          <leafValues>
            1.5924622118473053e-01 -9.7711890935897827e-02</leafValues></_>
        <_>
          <internalNodes>
            0 -1 33 1.8135067075490952e-02</internalNodes>
          <leafValues>
            -1.8891800940036774e-01 8.8028661906719208e-02</leafValues></_>
        <_>
          <internalNodes>
            0 -1 195 7.4171662330627441e-02</internalNodes>
          <leafValues>
            1.1172438040375710e-02 -1.</leafValues></_>
        <_>
          <internalNodes>
            0 -1 3 3.3274166285991669e-02</internalNodes>
          <leafValues>
            -1.0220981389284134e-01 1.2346616387367249e-01</leafValues></_>
        <_>
          <internalNodes>
            0 -1 254 4.5717012137174606e-02</internalNodes>
          <leafValues>
            -1.5278877317905426e-01 8.6553856730461121e-02</leafValues></_>
        <_>
          <internalNodes>
            0 -1 110 3.5251110792160034e-02</internalNodes>
          <leafValues>
            -6.2355462461709976e-02 2.2050411999225616e-01</leafValues></_>
        <_>
          <internalNodes>
            0 -1 172 1.8775347620248795e-02</internalNodes>
          <leafValues>
            -1.4068734645843506e-01 9.7526341676712036e-02</leafValues></_>
        <_>
          <internalNodes>
            0 -1 88 3.0023783445358276e-02</internalNodes>
          <leafValues>
            -1.0333076119422913e-01 1.4002409577369690e-01</leafValues></_>
        <_>
          <internalNodes>
            0 -1 7 1.0979941114783287e-02</internalNodes>
          <leafValues>
            1.8854607641696930e-01 -8.9206613600254059e-02</leafValues></_>
        <_>
          <internalNodes>
            0 -1 28 3.4712210297584534e-02</internalNodes>
          <leafValues>
            7.4925735592842102e-02 -2.0718570053577423e-01</leafValues></_>
        <_>
          <internalNodes>
            0 -1 248 3.6714121699333191e-02</internalNodes>
          <leafValues>
            -8.9384935796260834e-02 1.7776656150817871e-01</leafValues></_></weakClassifiers></_>
    <!-- stage 15 -->
    <_>
      <maxWeakCount>56</maxWeakCount>
      <stageThreshold>-1.5817804336547852e+00</stageThreshold>
      <weakClassifiers>
        <_>
          <internalNodes>
            0 -1 166 5.6949347257614136e-02</internalNodes>
          <leafValues>
            -7.9056048393249512e-01 -5.5555558204650879e-01</leafValues></_>
        <_>
          <internalNodes>
            0 -1 2 2.0931728184223175e-02</internalNodes>
          <leafValues>
            -4.2351633310317993e-01 -1.4925438165664673e-01</leafValues></_>
        <_>
          <internalNodes>
            0 -1 164 1.4905515313148499e-01</internalNodes>
          <leafValues>
            9.5226708799600601e-03 -8.4640336036682129e-01</leafValues></_>
        <_>
          <internalNodes>
            0 -1 20 2.9213469475507736e-02</internalNodes>
          <leafValues>
            -1.8602605164051056e-01 1.0444599390029907e-01</leafValues></_>
        <_>
          <internalNodes>
            0 -1 121 1.5337320044636726e-02</internalNodes>
          <leafValues>
            2.6693102717399597e-01 -5.4227892309427261e-02</leafValues></_>
        <_>
          <internalNodes>
            0 -1 221 1.6957465559244156e-02</internalNodes>
          <leafValues>
            1.6057308018207550e-01 -1.0862778127193451e-01</leafValues></_>
        <_>
          <internalNodes>
            0 -1 102 2.1633017808198929e-02</internalNodes>
          <leafValues>
            -1.4557272195816040e-01 1.1040461808443069e-01</leafValues></_>
        <_>
          <internalNodes>
            0 -1 42 5.1028631627559662e-02</internalNodes>
          <leafValues>
            -4.4401440769433975e-02 2.9781782627105713e-01</leafValues></_>
        <_>
          <internalNodes>
            0 -1 68 8.8835190981626511e-03</internalNodes>
          <leafValues>
            1.4466890692710876e-01 -1.1077042669057846e-01</leafValues></_>
        <_>
          <internalNodes>
            0 -1 27 2.0801257342100143e-02</internalNodes>
          <leafValues>
            1.2449033558368683e-01 -1.1599060893058777e-01</leafValues></_>
        <_>
          <internalNodes>
            0 -1 2 7.1784526109695435e-02</internalNodes>
          <leafValues>
            -6.4260087907314301e-02 3.1803643703460693e-01</leafValues></_>
        <_>
          <internalNodes>
            0 -1 166 8.6476001888513565e-03</internalNodes>
          <leafValues>
            -2.2281722724437714e-01 6.7995026707649231e-02</leafValues></_>
        <_>
          <internalNodes>
            0 -1 215 9.5525784417986870e-03</internalNodes>
          <leafValues>
            2.1337823569774628e-01 -9.3102417886257172e-02</leafValues></_>
        <_>
          <internalNodes>
            0 -1 100 1.1333667207509279e-03</internalNodes>
          <leafValues>
            -5.1793611049652100e-01 2.4856645613908768e-02</leafValues></_>
        <_>
          <internalNodes>
            0 -1 201 2.2317203693091869e-03</internalNodes>
          <leafValues>
            -8.5655343532562256e-01 1.8725382164120674e-02</leafValues></_>
        <_>
          <internalNodes>
            0 -1 185 9.0343847870826721e-02</internalNodes>
          <leafValues>
            9.0066604316234589e-03 -1.</leafValues></_>
        <_>
          <internalNodes>
            0 -1 180 2.1932568401098251e-02</internalNodes>
          <leafValues>
            9.6394233405590057e-02 -1.4741678535938263e-01</leafValues></_>
        <_>
          <internalNodes>
            0 -1 233 3.3139564096927643e-02</internalNodes>
          <leafValues>
            -1.4622846245765686e-01 1.0388474166393280e-01</leafValues></_>
        <_>
          <internalNodes>
            0 -1 161 4.6696867793798447e-02</internalNodes>
          <leafValues>
            -5.3448040038347244e-02 2.8471058607101440e-01</leafValues></_>
        <_>
          <internalNodes>
            0 -1 144 3.1575746834278107e-02</internalNodes>
          <leafValues>
            -6.9384120404720306e-02 2.0474040508270264e-01</leafValues></_>
        <_>
          <internalNodes>
            0 -1 218 4.9510849639773369e-03</internalNodes>
          <leafValues>
            -5.6633508205413818e-01 3.2996948808431625e-02</leafValues></_>
        <_>
          <internalNodes>
            0 -1 135 1.3660624623298645e-01</internalNodes>
          <leafValues>
            -3.0665807425975800e-02 5.7755064964294434e-01</leafValues></_>
        <_>
          <internalNodes>
            0 -1 205 7.1212649345397949e-02</internalNodes>
          <leafValues>
            -5.1376637071371078e-02 2.9588651657104492e-01</leafValues></_>
        <_>
          <internalNodes>
            0 -1 253 5.0521340221166611e-02</internalNodes>
          <leafValues>
            -6.6166877746582031e-02 1.8345145881175995e-01</leafValues></_>
        <_>
          <internalNodes>
            0 -1 168 3.1878087669610977e-02</internalNodes>
          <leafValues>
            4.7336366027593613e-02 -2.8522190451622009e-01</leafValues></_>
        <_>
          <internalNodes>
            0 -1 208 1.1874692514538765e-02</internalNodes>
          <leafValues>
            2.0363533496856689e-01 -6.8214111030101776e-02</leafValues></_>
        <_>
          <internalNodes>
            0 -1 69 4.0298019303008914e-04</internalNodes>
          <leafValues>
            -3.7515380978584290e-01 3.6932762712240219e-02</leafValues></_>
        <_>
          <internalNodes>
            0 -1 182 4.0923293679952621e-02</internalNodes>
          <leafValues>
            -8.8784076273441315e-02 1.4675623178482056e-01</leafValues></_>
        <_>
          <internalNodes>
            0 -1 112 4.8126410692930222e-02</internalNodes>
          <leafValues>
            -4.6308819204568863e-02 3.5090246796607971e-01</leafValues></_>
        <_>
          <internalNodes>
            0 -1 46 4.0691558271646500e-02</internalNodes>
          <leafValues>
            3.9427749812602997e-02 -3.2803273200988770e-01</leafValues></_>
        <_>
          <internalNodes>
            0 -1 128 7.9338476061820984e-03</internalNodes>
          <leafValues>
            2.0805038511753082e-01 -6.3939094543457031e-02</leafValues></_>
        <_>
          <internalNodes>
            0 -1 186 7.1238179225474596e-04</internalNodes>
          <leafValues>
            -9.1368412971496582e-01 1.5755822882056236e-02</leafValues></_>
        <_>
          <internalNodes>
            0 -1 20 6.6707581281661987e-03</internalNodes>
          <leafValues>
            -5.6268322467803955e-01 1.7560575157403946e-02</leafValues></_>
        <_>
          <internalNodes>
            0 -1 192 1.2014633417129517e-01</internalNodes>
          <leafValues>
            1.0833306238055229e-02 -8.9226555824279785e-01</leafValues></_>
        <_>
          <internalNodes>
            0 -1 192 3.1693562865257263e-02</internalNodes>
          <leafValues>
            -1.1943908780813217e-01 9.5604524016380310e-02</leafValues></_>
        <_>
          <internalNodes>
            0 -1 87 2.7996873483061790e-02</internalNodes>
          <leafValues>
            -9.4620570540428162e-02 1.4013743400573730e-01</leafValues></_>
        <_>
          <internalNodes>
            0 -1 6 4.0178176015615463e-02</internalNodes>
          <leafValues>
            6.2506012618541718e-02 -2.6704180240631104e-01</leafValues></_>
        <_>
          <internalNodes>
            0 -1 124 2.3623369634151459e-03</internalNodes>
          <leafValues>
            6.3351696729660034e-01 -2.6745868846774101e-02</leafValues></_>
        <_>
          <internalNodes>
            0 -1 252 3.5872496664524078e-02</internalNodes>
          <leafValues>
            -5.4556451737880707e-02 2.1991902589797974e-01</leafValues></_>
        <_>
          <internalNodes>
            0 -1 46 2.4532817769795656e-03</internalNodes>
          <leafValues>
            2.9769957065582275e-01 -4.1475404053926468e-02</leafValues></_>
        <_>
          <internalNodes>
            0 -1 105 9.2189908027648926e-02</internalNodes>
          <leafValues>
            3.0311496928334236e-02 -4.3741580843925476e-01</leafValues></_>
        <_>
          <internalNodes>
            0 -1 135 3.8542665541172028e-02</internalNodes>
          <leafValues>
            -1.4479830861091614e-01 9.8326921463012695e-02</leafValues></_>
        <_>
          <internalNodes>
            0 -1 109 1.4449160546064377e-02</internalNodes>
          <leafValues>
            -1.6571852564811707e-01 9.1420389711856842e-02</leafValues></_>
        <_>
          <internalNodes>
            0 -1 241 5.0397537648677826e-02</internalNodes>
          <leafValues>
            -4.2423225939273834e-02 3.0903393030166626e-01</leafValues></_>
        <_>
          <internalNodes>
            0 -1 162 2.9072936624288559e-02</internalNodes>
          <leafValues>
            -8.3640679717063904e-02 1.5944477915763855e-01</leafValues></_>
        <_>
          <internalNodes>
            0 -1 51 3.3397406339645386e-02</internalNodes>
          <leafValues>
            3.8774162530899048e-02 -3.5037404298782349e-01</leafValues></_>
        <_>
          <internalNodes>
            0 -1 43 3.9286531507968903e-02</internalNodes>
          <leafValues>
            2.7116606011986732e-02 -4.1922479867935181e-01</leafValues></_>
        <_>
          <internalNodes>
            0 -1 72 1.4586137607693672e-02</internalNodes>
          <leafValues>
            2.5470346212387085e-01 -6.4467705786228180e-02</leafValues></_>
        <_>
          <internalNodes>
            0 -1 208 6.0070794075727463e-02</internalNodes>
          <leafValues>
            3.5859517753124237e-02 -3.5830843448638916e-01</leafValues></_>
        <_>
          <internalNodes>
            0 -1 3 2.8960464987903833e-03</internalNodes>
          <leafValues>
            -5.8938932418823242e-01 2.0120453089475632e-02</leafValues></_>
        <_>
          <internalNodes>
            0 -1 1 5.3473627194762230e-03</internalNodes>
          <leafValues>
            2.9262098670005798e-01 -5.1532458513975143e-02</leafValues></_>
        <_>
          <internalNodes>
            0 -1 5 3.6992244422435760e-02</internalNodes>
          <leafValues>
            5.7025112211704254e-02 -2.3578557372093201e-01</leafValues></_>
        <_>
          <internalNodes>
            0 -1 31 1.7728857696056366e-02</internalNodes>
          <leafValues>
            -2.1267485618591309e-01 5.7381108403205872e-02</leafValues></_>
        <_>
          <internalNodes>
            0 -1 131 1.9542064517736435e-02</internalNodes>
          <leafValues>
            -8.5410743951797485e-02 1.4156198501586914e-01</leafValues></_>
        <_>
          <internalNodes>
            0 -1 138 2.9975060373544693e-02</internalNodes>
          <leafValues>
            6.3267447054386139e-02 -2.1220912039279938e-01</leafValues></_>
        <_>
          <internalNodes>
            0 -1 165 3.1997926533222198e-02</internalNodes>
          <leafValues>
            -7.8146137297153473e-02 1.9607301056385040e-01</leafValues></_></weakClassifiers></_>
    <!-- stage 16 -->
    <_>
      <maxWeakCount>73</maxWeakCount>
      <stageThreshold>-1.4745180606842041e+00</stageThreshold>
      <weakClassifiers>
        <_>
          <internalNodes>
            0 -1 65 1.3356180489063263e-01</internalNodes>
          <leafValues>
            -7.6871955394744873e-01 1.</leafValues></_>
        <_>
          <internalNodes>
            0 -1 95 2.3904995992779732e-02</internalNodes>
          <leafValues>
            -3.6451047658920288e-01 -1.4010097086429596e-01</leafValues></_>
        <_>
          <internalNodes>
            0 -1 228 3.1659249216318130e-02</internalNodes>
          <leafValues>
            -2.2178381681442261e-01 5.6366715580224991e-02</leafValues></_>
        <_>
          <internalNodes>
            0 -1 206 3.4161478281021118e-02</internalNodes>
          <leafValues>
            -9.7013480961322784e-02 2.1747978031635284e-01</leafValues></_>
        <_>
          <internalNodes>
            0 -1 181 1.0412182658910751e-02</internalNodes>
          <leafValues>
            2.0488558709621429e-01 -9.0808406472206116e-02</leafValues></_>
        <_>
          <internalNodes>
            0 -1 30 2.9613669961690903e-02</internalNodes>
          <leafValues>
            -1.4087961614131927e-01 9.5815815031528473e-02</leafValues></_>
        <_>
          <internalNodes>
            0 -1 73 2.0565520972013474e-02</internalNodes>
          <leafValues>
            -3.6067235469818115e-01 6.6080190241336823e-02</leafValues></_>
        <_>
          <internalNodes>
            0 -1 166 5.2305839955806732e-02</internalNodes>
          <leafValues>
